<?xml version="1.0"?>
<opencv_storage>
<opencv_ml_svm>
  <format>3</format>
  <svmType>C_SVC</svmType>
  <kernel>
    <type>INTER</type>
    <gamma>5.3830000000000000e+00</gamma></kernel>
  <C>2.6699999999999999e+00</C>
  <term_criteria><epsilon>1.1920928955078125e-07</epsilon>
    <iterations>1000</iterations></term_criteria>
  <var_count>256</var_count>
  <class_count>2</class_count>
  <class_labels type_id="opencv-matrix">
    <rows>2</rows>
    <cols>1</cols>
    <dt>i</dt>
    <data>
      0 1</data></class_labels>
  <sv_total>50</sv_total>
  <support_vectors>
    <_>
      4.22335434e+01 7.82719421e+00 6.59482765e+00 9.89224148e+00
      2.13166142e+01 3.01430244e+01 3.56720200e+01 5.23589325e+01
      1.25434952e+02 8.43005447e+01 255. 1.73863632e+02 1.30664185e+02
      8.63989029e+01 7.81387100e+01 3.99686508e+01 5.45239029e+01
      1.79525852e+01 7.62735081e+00 1.71865196e+01 1.11579151e+01
      1.55544672e+01 7.52742958e+00 2.69788408e+00 2.19827580e+00
      4.72962379e+00 8.55995274e+00 1.33228838e-01 1.93181813e+00
      7.32758641e-01 2.05172405e+01 0. 1.33228838e-01 2.66457677e-01
      1.89184952e+01 2.39478836e+01 1.33228838e-01 1.33228838e+00
      8.95963955e+00 1.59874606e+00 7.19435740e+00 2.66457677e-01
      9.32601869e-01 2.13166142e+00 0. 1.99843264e+00 1.33228838e-01 0.
      3.99686527e+00 0. 8.92633247e+00 1.33228838e-01 6.66144192e-01
      3.99686515e-01 1.06583071e+00 1.06583071e+00 2.13166142e+00
      7.99373031e-01 1.06583071e+00 0. 1.33228838e+00 0. 3.99686515e-01
      1.33228838e-01 0. 2.66457677e-01 5.46238232e+00 1.33228838e-01
      1.33228838e-01 5.32915354e-01 1.99843264e+00 1.33228838e-01 0.
      8.65987492e+00 1.54545450e+01 1.41222572e+01 3.99686515e-01 0. 0.
      2.70454540e+01 1.79858932e+01 1.33228838e-01 0. 6.79467058e+00 0.
      1.33228838e-01 0. 1.59874606e+00 0. 0. 2.66457677e-01 0. 0. 0. 0.
      0. 0. 0. 0. 0. 0. 0. 0. 1.33228838e-01 0. 0. 0. 0. 0. 0.
      1.06583071e+00 0. 0. 0. 0. 1.33228838e-01 0. 0. 0. 0.
      7.99373031e-01 5.32915354e-01 6.66144192e-01 1.46551728e+00
      1.06583071e+00 1.99843264e+00 7.99373031e-01 2.66457677e-01
      3.99686515e-01 1.19905949e+00 1.59874606e+00 1.06583071e+00
      7.99373031e-01 9.32601869e-01 9.32601869e-01 3.99686515e-01
      1.46551728e+00 0. 5.32915354e-01 2.66457677e-01 3.99686515e-01
      1.33228838e-01 5.32915354e-01 0. 5.32915354e-01 1.33228838e-01
      5.32915354e-01 3.99686515e-01 0. 2.66457677e-01 1.33228838e-01 0.
      0. 2.66457677e-01 0. 0. 3.99686515e-01 0. 0. 3.99686515e-01
      3.99686515e-01 0. 2.66457677e-01 3.99686515e-01 2.66457677e-01
      3.59717870e+00 1.33228838e-01 1.33228838e-01 0. 1.33228838e+00
      2.79780555e+00 1.33228838e-01 0. 1.33228838e+00 1.19905949e+00
      2.66457677e-01 1.33228838e-01 1.03252351e+00 1.06583071e+00
      1.59874606e+00 0. 0. 0. 0. 0. 0. 0. 0. 0. 0. 0. 0. 0. 0. 0. 0. 0.
      0. 0. 0. 0. 0. 0. 0. 0. 0. 0. 0. 0. 0. 0. 0. 0. 0. 0. 0. 0. 0. 0.
      0. 0. 0. 0. 0. 0. 0. 0. 0. 0. 0. 0. 0. 0. 0. 0. 0. 0. 0. 0. 0. 0.
      0. 0. 0. 0. 0. 0. 0. 0. 0. 0. 0. 0. 0. 0. 0.</_>
    <_>
      5.56709290e+00 1.35782748e-01 1.35782748e-01 5.43130994e-01
      1.35782743e+00 3.66613412e+00 2.17252398e+00 4.48083067e+00
      1.75159740e+01 1.45287542e+01 2.45766773e+01 3.96485634e+01
      3.95127792e+01 1.34289139e+02 1.54928116e+02 8.81230011e+01
      9.13817902e+01 1.99464859e+02 1.50447281e+02 255. 1.25599045e+02
      1.04552719e+02 1.16230034e+02 3.24520760e+01 5.03754005e+01
      5.93370628e+01 8.16054306e+01 9.09744453e+00 5.48562317e+01
      1.86022358e+01 1.79233227e+01 2.71565485e+00 1.49361026e+00
      6.65335464e+00 7.60383415e+00 1.69728432e+01 9.50479269e-01
      8.28274727e+00 1.53434505e+01 1.08626199e+00 8.28274727e+00
      2.85143781e+00 3.12300324e+00 3.12300324e+00 1.35782748e-01
      2.71565485e+00 0. 0. 3.25878596e+00 0. 1.08626199e+00 0. 0.
      5.43130994e-01 1.08626199e+00 5.43130994e-01 1.62939298e+00
      1.08626199e+00 0. 0. 2.85143781e+00 0. 1.62939298e+00
      5.43130994e-01 0. 0. 1.62939298e+00 0. 5.43130994e-01
      1.08626199e+00 5.43130994e-01 5.43130994e-01 0. 1.14057512e+01
      1.14057512e+01 3.25878596e+00 2.17252398e+00 5.43130994e-01 0.
      1.30351439e+01 1.84664536e+01 0. 0. 0. 0. 1.62939298e+00 0.
      4.88817883e+00 0. 1.08626199e+00 1.62939298e+00 0. 0.
      3.25878596e+00 0. 1.14057512e+01 1.08626199e+00 0. 4.88817883e+00
      5.43130994e-01 5.43130994e-01 5.43130970e+00 5.43130994e-01
      4.88817883e+00 3.25878596e+00 1.08626199e+00 2.17252398e+00
      5.43130994e-01 0. 1.08626199e+00 1.08626199e+00 5.43130994e-01
      5.43130994e-01 0. 0. 0. 0. 0. 0. 0. 3.25878596e+00 0. 0. 0. 0.
      1.62939298e+00 5.43130994e-01 0. 0. 0. 0. 0. 0. 0. 0. 0. 0. 0. 0.
      0. 1.08626199e+00 0. 0. 0. 0. 0. 0. 0. 0. 0. 0. 0. 0. 0. 0. 0. 0.
      0. 0. 0. 0. 0. 0. 0. 0. 1.08626199e+00 0. 0. 0. 0. 1.76517570e+00
      2.71565497e-01 1.35782748e-01 0. 1.35782748e-01 0. 0.
      5.43130994e-01 5.43130994e-01 0. 0. 0. 0. 0. 0. 0. 0. 0. 0. 0. 0.
      0. 0. 0. 0. 0. 0. 0. 0. 0. 0. 0. 0. 0. 0. 0. 0. 0. 0. 0. 0. 0. 0.
      0. 0. 0. 0. 0. 0. 0. 0. 0. 0. 0. 0. 0. 0. 0. 0. 0. 0. 0. 0. 0. 0.
      0. 0. 0. 0. 0. 0. 0. 0. 0. 0. 0. 0. 0. 0. 0. 0. 0. 0. 0. 0. 0.</_>
    <_>
      2.40414834e+00 1.44248903e+00 8.01382780e-01 4.32746696e+00
      3.20553112e+00 3.04525471e+00 7.37272167e+00 1.58673792e+01
      1.79509754e+01 1.21810188e+01 1.21649910e+02 7.43683243e+01
      9.76084290e+01 1.95056580e+02 2.55000015e+02 9.93714676e+01
      1.15719681e+02 1.12193596e+02 6.68353271e+01 8.43054733e+01
      3.70238876e+01 1.60276566e+01 3.07730999e+01 7.85355139e+00
      6.25078583e+00 1.37837839e+01 1.63482094e+01 0. 8.97548771e+00
      2.56442499e+00 3.84663749e+00 0. 1.92331874e+00 0. 7.05216885e+00
      8.97548771e+00 1.28221250e+00 0. 5.76995611e+00 1.28221250e+00
      8.97548771e+00 0. 1.28221250e+00 1.28221250e+00 0. 2.56442499e+00
      0. 0. 3.84663749e+00 0. 0. 1.28221250e+00 0. 1.28221250e+00
      6.41106248e-01 6.41106248e-01 5.60967970e+00 2.56442499e+00
      5.76995611e+00 0. 6.57133913e+00 0. 5.12884998e+00 1.28221250e+00
      0. 1.92331874e+00 2.56442499e+00 1.28221250e+00 0. 6.41106248e-01
      0. 0. 6.41106248e-01 6.41106248e-01 2.56442499e+00 1.92331874e+00
      0. 0. 0. 3.84663749e+00 3.20553112e+00 1.28221250e+00 0.
      3.84663749e+00 0. 0. 0. 3.20553112e+00 0. 0. 0. 0. 0. 0. 0. 0. 0.
      0. 0. 0. 0. 0. 0. 0. 0. 0. 0. 0. 0. 0. 6.41106248e-01 0. 0. 0. 0.
      0. 0. 0. 0. 0. 0. 0. 0. 0. 0. 0. 0. 0. 0. 0. 0. 0. 0. 0. 0. 0. 0.
      0. 0. 0. 0. 0. 0. 0. 0. 0. 0. 0. 0. 0. 0. 0. 0. 0. 0. 0. 0. 0. 0.
      0. 0. 0. 0. 0. 0. 0. 0. 0. 0. 0. 1.28221250e+00 0. 0. 0. 0. 0. 0.
      6.41106248e-01 0. 0. 0. 0. 0. 0. 0. 0. 0. 0. 0. 0. 0. 0. 0. 0. 0.
      0. 0. 0. 0. 0. 0. 0. 0. 0. 0. 0. 0. 0. 0. 0. 0. 0. 0. 0. 0. 0. 0.
      0. 0. 0. 0. 0. 0. 0. 0. 0. 0. 0. 0. 0. 0. 0. 0. 0. 0. 0. 0. 0. 0.
      0. 0. 0. 0. 0. 0. 0. 0. 0. 0. 0. 0. 0. 0. 0. 0. 0.</_>
    <_>
      1.09090912e+02 5.31818199e+01 3.86363640e+01 3.77272720e+01
      2.72727280e+01 255. 3.22727280e+01 6.36363649e+00 1.17727280e+02
      65. 1.27272730e+01 4.90909119e+01 1.36363637e+00 2.13636379e+01
      2.27272739e+01 7.72727299e+00 2.09090919e+01 3.63636374e+00
      1.81818187e+00 4.09090900e+00 5.45454550e+00 1.22727280e+01
      2.27272725e+00 4.09090900e+00 1.81818187e+00 1.36363637e+00
      9.54545498e+00 0. 1.36363637e+00 4.54545468e-01 1.63636360e+01 0.
      4.54545468e-01 0. 3.18181825e+00 3.63636374e+00 9.09090936e-01
      4.54545468e-01 6.81818199e+00 4.54545468e-01 3.63636374e+00
      1.36363637e+00 1.36363637e+00 3.18181825e+00 0. 9.09090936e-01
      4.54545468e-01 0. 3.63636374e+00 0. 1.45454550e+01 0.
      4.54545468e-01 0. 4.54545468e-01 1.81818187e+00 0. 0. 0. 0.
      4.54545468e-01 0. 0. 4.54545468e-01 0. 0. 7.27272749e+00 0.
      1.81818187e+00 1.81818187e+00 1.81818187e+00 0. 0. 3.63636374e+00
      1.40909100e+01 1.36363640e+01 9.09090936e-01 4.54545468e-01 0.
      7.27272749e+00 1.22727280e+01 0. 0. 1.81818187e+00 0.
      1.36363637e+00 0. 2.72727275e+00 0. 0. 9.09090936e-01 0.
      9.09090936e-01 1.81818187e+00 0. 20. 2.72727275e+00 0.
      8.63636398e+00 0. 0. 20. 0. 5.90909100e+00 9.09090900e+00
      9.09090936e-01 5.90909100e+00 4.54545468e-01 4.54545468e-01
      4.54545450e+00 5.45454550e+00 7.27272749e+00 3.18181825e+00
      3.18181825e+00 1.45454550e+01 1.81818180e+01 1.22727280e+01
      1.09090910e+01 5.45454550e+00 1.54545460e+01 2.27272739e+01
      3.18181825e+00 6.36363649e+00 9.54545498e+00 2.72727280e+01
      3.63636360e+01 4.09090900e+00 1.81818187e+00 2.27272725e+00
      9.09090936e-01 6.81818199e+00 1.36363637e+00 2.27272725e+00
      4.54545450e+00 1.36363637e+00 1.36363637e+00 4.09090900e+00 0. 5.
      1.81818187e+00 2.27272725e+00 1.36363637e+00 8.18181801e+00 0.
      2.27272725e+00 1.36363637e+00 5.90909100e+00 10. 4.54545468e-01 0.
      5.45454550e+00 0. 0. 1.18181820e+01 0. 5. 5.45454550e+00
      5.45454550e+00 0. 1.36363637e+00 6.81818199e+00 0. 4.54545468e-01
      5.90909100e+00 4.09090900e+00 4.54545450e+00 6.36363649e+00
      2.72727275e+00 0. 6.72727280e+01 1.53181824e+02 1.45454550e+01
      7.27272749e+00 15. 8.31818237e+01 1.04545460e+01 3.63636374e+00
      5.68181839e+01 9.54545498e+00 1.86363640e+01 0. 0. 0. 0. 0. 0. 0.
      0. 0. 0. 0. 0. 0. 0. 0. 0. 0. 0. 0. 0. 0. 0. 0. 0. 0. 0. 0. 0. 0.
      0. 0. 0. 0. 0. 0. 0. 0. 0. 0. 0. 0. 0. 0. 0. 0. 0. 0. 0. 0. 0. 0.
      0. 0. 0. 0. 0. 0. 0. 0. 0. 0. 0. 0. 0. 0. 0. 0. 0. 0. 0. 0. 0. 0.
      0. 0. 0.</_>
    <_>
      1.11767952e+02 8.45303822e+00 5.16574574e+00 8.45303822e+00
      8.92265224e+00 1.13176796e+02 2.01933708e+01 2.34806633e+00
      7.93646393e+01 3.80386734e+01 1.26795578e+01 3.09944744e+01
      1.87845302e+00 2.06629829e+01 5.63535919e+01 2.34806633e+00
      9.76795578e+01 2.81767941e+00 4.69613254e-01 1.87845302e+00
      7.98342514e+00 5.30662994e+01 1.87845302e+00 8.92265224e+00
      4.69613254e-01 1.40883970e+00 2.34806633e+00 0. 4.69613254e-01 0.
      1.87845306e+01 0. 0. 0. 3.28729272e+00 4.69613266e+00
      9.39226508e-01 0. 3.28729272e+00 9.39226508e-01 3.75690603e+00 0.
      2.34806633e+00 4.22651911e+00 0. 1.87845302e+00 4.69613254e-01 0.
      9.39226508e-01 0. 3.38121529e+01 4.69613254e-01 1.40883970e+00 0.
      0. 9.39226508e-01 9.39226508e-01 4.69613254e-01 0. 0.
      1.87845302e+00 0. 0. 9.39226508e-01 0. 0. 1.59668503e+01 0.
      4.69613254e-01 1.40883970e+00 4.69613266e+00 4.69613254e-01 0. 0.
      2.34806633e+00 3.66298332e+01 0. 0. 0. 4.69613254e-01
      3.75690603e+00 0. 0. 1.26795578e+01 9.39226508e-01 4.69613254e-01
      0. 0. 4.69613254e-01 0. 3.28729272e+00 4.69613254e-01
      4.69613254e-01 9.39226508e-01 0. 4.69613266e+00 9.39226508e-01 0.
      3.28729272e+00 0. 0. 6.57458544e+00 0. 4.69613266e+00
      3.75690603e+00 4.69613254e-01 5.16574574e+00 0. 0. 5.16574574e+00
      1.87845302e+00 4.22651911e+00 4.69613254e-01 4.69613254e-01
      2.34806633e+00 1.59668503e+01 1.40883970e+00 0. 0. 0.
      2.44198895e+01 0. 1.40883970e+00 0. 1.78453045e+01 1.40883980e+01
      9.39226508e-01 0. 0. 0. 2.81767941e+00 0. 0. 9.39226508e-01 0. 0.
      0. 0. 5.63535881e+00 0. 1.40883970e+00 3.75690603e+00
      7.98342514e+00 0. 1.40883970e+00 4.69613254e-01 1.17403316e+01
      1.59668503e+01 0. 0. 5.16574574e+00 0. 1.87845302e+00
      1.22099447e+01 0. 6.10497236e+00 5.63535881e+00 2.34806633e+00
      4.69613254e-01 9.39226508e-01 3.75690603e+00 4.69613254e-01 0.
      3.28729272e+00 3.75690603e+00 1.69060764e+01 1.87845302e+00 0. 0.
      6.85635376e+01 255. 5.16574574e+00 0. 3.05248623e+01
      3.75690613e+01 1.17403316e+01 4.69613254e-01 1.14116020e+02
      4.69613254e-01 1.40883970e+00 0. 0. 0. 0. 0. 0. 0. 0. 0. 0. 0. 0.
      0. 0. 0. 0. 0. 0. 0. 0. 0. 0. 0. 0. 0. 0. 0. 0. 0. 0. 0. 0. 0. 0.
      0. 0. 0. 0. 0. 0. 0. 0. 0. 0. 0. 0. 0. 0. 0. 0. 0. 0. 0. 0. 0. 0.
      0. 0. 0. 0. 0. 0. 0. 0. 0. 0. 0. 0. 0. 0. 0. 0. 0. 0. 0. 0.</_>
    <_>
      7.97593994e+01 2.60751877e+01 1.80225563e+01 1.41879702e+01
      2.26240597e+01 255. 1.84060154e+01 6.13533831e+00 1.00082703e+02
      5.40676689e+01 2.18571434e+01 3.22105255e+01 3.83458638e+00
      1.91729317e+01 4.06466179e+01 4.69736862e+00 5.06165428e+01
      2.58834577e+00 2.30075192e+00 1.53383458e+00 3.83458638e+00
      2.41578941e+01 4.98496246e+00 4.98496246e+00 7.66917288e-01
      1.15037596e+00 5.36842108e+00 0. 0. 0. 1.53383455e+01 0. 0. 0.
      9.58646584e+00 5.36842108e+00 0. 1.15037596e+00 8.05263138e+00
      7.66917288e-01 6.90225554e+00 0. 1.15037596e+00 1.53383458e+00 0.
      3.45112777e+00 3.83458644e-01 0. 3.06766915e+00 0. 9.20300770e+00
      0. 7.66917288e-01 1.15037596e+00 1.53383458e+00 1.15037596e+00
      1.15037596e+00 1.15037596e+00 1.15037596e+00 3.83458644e-01
      1.91729319e+00 3.83458644e-01 7.66917288e-01 7.66917288e-01 0.
      1.91729319e+00 5.75187969e+00 2.30075192e+00 2.30075192e+00
      4.21804523e+00 6.51879692e+00 1.91729319e+00 1.91729319e+00
      1.22706766e+01 1.80225563e+01 1.26541357e+01 2.30075192e+00
      1.91729319e+00 0. 9.20300770e+00 1.95563908e+01 7.66917288e-01
      3.83458644e-01 8.05263138e+00 7.66917288e-01 0. 0. 3.83458644e-01
      0. 0. 3.83458644e-01 7.66917288e-01 0. 1.53383458e+00
      3.83458644e-01 3.45112777e+00 3.83458644e-01 0. 2.30075192e+00 0.
      0. 3.06766915e+00 0. 2.30075192e+00 3.45112777e+00 3.83458644e-01
      1.15037596e+00 1.91729319e+00 7.66917288e-01 2.30075192e+00
      1.91729319e+00 1.15037596e+00 1.53383458e+00 7.66917288e-01
      1.15037596e+00 3.06766915e+00 1.15037596e+00 0. 0. 7.66917288e-01
      6.51879692e+00 0. 3.83458644e-01 0. 6.13533831e+00 4.60150385e+00
      0. 0. 3.83458644e-01 0. 1.15037596e+00 0. 0. 3.83458638e+00 0. 0.
      3.83458644e-01 0. 2.30075192e+00 0. 2.30075192e+00 0.
      7.66917288e-01 0. 3.83458644e-01 0. 2.68421054e+00 4.21804523e+00
      0. 0. 3.83458644e-01 0. 3.83458644e-01 1.15037596e+00 0. 0.
      1.15037596e+00 3.45112777e+00 7.66917288e-01 1.53383458e+00
      1.53383458e+00 3.83458644e-01 7.66917288e-01 1.53383458e+00
      7.66917288e-01 4.60150385e+00 2.68421054e+00 2.68421054e+00 0.
      2.87593975e+01 7.13233109e+01 3.45112777e+00 2.30075192e+00
      8.05263138e+00 2.22406006e+01 2.68421054e+00 1.91729319e+00
      2.76090221e+01 3.45112777e+00 1.18872175e+01 0. 0. 0. 0. 0. 0. 0.
      0. 0. 0. 0. 0. 0. 0. 0. 0. 0. 0. 0. 0. 0. 0. 0. 0. 0. 0. 0. 0. 0.
      0. 0. 0. 0. 0. 0. 0. 0. 0. 0. 0. 0. 0. 0. 0. 0. 0. 0. 0. 0. 0. 0.
      0. 0. 0. 0. 0. 0. 0. 0. 0. 0. 0. 0. 0. 0. 0. 0. 0. 0. 0. 0. 0. 0.
      0. 0. 0.</_>
    <_>
      1.14667389e+02 1.27775373e+01 1.27775373e+01 1.18963280e+01
      8.81209469e+00 9.60518341e+01 2.19200859e+01 4.84665203e+00
      6.16846657e+01 5.11101494e+01 1.20064793e+01 4.30691147e+01
      7.49028063e+00 2.98509712e+01 3.67904968e+01 8.92224598e+00
      6.38876877e+01 6.16846657e+00 4.84665203e+00 2.64362860e+00
      1.05745144e+01 3.66803436e+01 3.52483797e+00 1.36587467e+01
      1.76241899e+00 4.40604746e-01 2.42332602e+00 0. 0. 0.
      2.02678185e+01 0. 0. 0. 2.20302367e+00 3.52483797e+00
      5.50755918e-01 0. 3.41468668e+00 4.40604746e-01 4.40604734e+00 0.
      4.40604746e-01 8.81209493e-01 0. 8.81209493e-01 0. 0.
      4.40604746e-01 0. 1.93866081e+01 0. 0. 2.20302373e-01 0.
      1.10151184e+00 0. 0. 0. 0. 0. 0. 4.40604746e-01 0. 0. 0.
      5.06695461e+00 4.40604746e-01 0. 0. 1.98272133e+00 0. 0.
      4.40604746e-01 0. 1.98272133e+01 0. 0. 0. 0. 0. 0. 0.
      2.42332602e+00 0. 0. 0. 0. 0. 0. 9.91360664e-01 0. 0. 0. 0.
      4.40604746e-01 0. 0. 4.40604746e-01 0. 0. 4.40604746e-01 0.
      2.20302367e+00 0. 0. 0. 0. 0. 2.64362860e+00 9.91360664e-01
      2.20302367e+00 0. 0. 1.32181430e+00 5.72786188e+00 0. 0. 0. 0.
      1.09049673e+01 0. 0. 0. 7.93088531e+00 4.84665203e+00 0. 0.
      4.40604746e-01 0. 2.20302367e+00 0. 0. 4.40604746e-01 0.
      4.40604746e-01 0. 0. 2.64362860e+00 0. 1.76241899e+00
      8.81209493e-01 6.60907125e+00 0. 4.40604746e-01 4.40604746e-01
      3.96544266e+00 7.49028063e+00 4.40604746e-01 0. 3.63498926e+00 0.
      4.40604746e-01 3.08423328e+00 0. 2.64362860e+00 5.39740801e+00
      1.32181430e+00 4.40604746e-01 0. 5.61771059e+00 0. 0.
      7.04967594e+00 1.32181430e+00 1.46501074e+01 3.96544266e+00
      1.43196547e+00 0. 6.34470825e+01 255. 4.40604734e+00
      2.20302367e+00 2.64362850e+01 4.40604744e+01 2.20302367e+00
      1.43196547e+00 8.60280762e+01 1.32181430e+00 4.84665203e+00 0. 0.
      0. 0. 0. 0. 0. 0. 0. 0. 0. 0. 0. 0. 0. 0. 0. 0. 0. 0. 0. 0. 0. 0.
      0. 0. 0. 0. 0. 0. 0. 0. 0. 0. 0. 0. 0. 0. 0. 0. 0. 0. 0. 0. 0. 0.
      0. 0. 0. 0. 0. 0. 0. 0. 0. 0. 0. 0. 0. 0. 0. 0. 0. 0. 0. 0. 0. 0.
      0. 0. 0. 0. 0. 0. 0. 0.</_>
    <_>
      1.26835938e+02 3.32031250e-01 3.32031250e-01 3.32031250e+00 0.
      4.11718750e+01 2.55664063e+01 0. 3.12109375e+01 7.63671875e+00
      9.96093750e-01 4.64843750e+01 3.32031250e-01 3.05468750e+01
      1.29824219e+02 4.64843750e+00 2.18808594e+02 3.32031250e-01
      1.09570313e+01 3.98437500e+00 2.58984375e+01 8.76562500e+01
      1.22851563e+01 1.52734375e+01 5.31250000e+00 3.98437500e+00
      8.30078125e+00 3.32031250e-01 1.32812500e+00 3.32031250e-01
      5.77734375e+01 0. 9.96093750e-01 9.96093750e-01 6.64062500e+00
      1.19531250e+01 2.32421875e+00 3.32031250e-01 7.30468750e+00
      9.96093750e-01 5.64453125e+00 3.32031250e-01 5.97656250e+00
      2.32421875e+00 3.32031250e-01 2.32421875e+00 6.64062500e-01 0.
      1.32812500e+00 3.32031250e-01 3.88476563e+01 6.64062500e-01
      6.64062500e-01 0. 3.32031250e-01 4.98046875e+00 1.32812500e+00
      6.64062500e-01 3.32031250e-01 0. 2.65625000e+00 6.64062500e-01
      3.32031250e-01 3.32031250e-01 6.64062500e-01 3.32031250e-01
      1.99218750e+01 1.66015625e+00 6.64062500e-01 3.98437500e+00
      9.62890625e+00 2.32421875e+00 1.99218750e+00 5.64453125e+00
      1.31152344e+01 3.69384766e+01 9.96093750e-01 2.98828125e+00
      1.32812500e+00 8.96484375e+00 1.82617188e+01 1.32812500e+00 0.
      1.30322266e+01 3.32031250e-01 6.64062500e-01 3.32031250e-01
      2.32421875e+00 0. 6.64062500e-01 1.32812500e+00 6.64062500e-01
      9.96093750e-01 1.66015625e+00 6.64062500e-01 1.22851563e+01
      2.65625000e+00 3.32031250e-01 7.30468750e+00 9.96093750e-01
      9.96093750e-01 1.66015625e+01 6.64062500e-01 7.63671875e+00
      7.96875000e+00 2.32421875e+00 6.30859375e+00 3.32031250e+00 0.
      1.06250000e+01 6.97265625e+00 8.96484375e+00 3.98437500e+00
      6.64062500e-01 5.31250000e+00 1.26171875e+01 2.32421875e+00
      3.32031250e-01 3.32031250e-01 0. 2.39062500e+01 0. 1.66015625e+00
      3.32031250e-01 2.15820313e+01 1.75976563e+01 3.32031250e-01 0.
      3.32031250e+00 0. 3.65234375e+00 0. 0. 2.32421875e+00 0.
      9.96093750e-01 0. 0. 1.32812500e+00 0. 4.31640625e+00
      9.96093750e-01 2.32421875e+00 0. 3.32031250e-01 3.32031250e-01
      1.99218750e+00 1.66015625e+00 0. 0. 2.32421875e+00 0.
      3.32031250e-01 9.96093750e-01 0. 9.96093750e-01 9.96093750e-01 0.
      0. 3.32031250e-01 3.32031250e+00 0. 0. 6.64062500e+00
      2.65625000e+00 2.45703125e+01 1.66015625e+00 0. 0. 3.85156250e+01
      255. 2.65625000e+00 0. 3.02148438e+01 9.29687500e+00
      8.96484375e+00 0. 1.09902344e+02 0. 0. 0. 0. 0. 0. 0. 0. 0. 0. 0.
      0. 0. 0. 0. 0. 0. 0. 0. 0. 0. 0. 0. 0. 0. 0. 0. 0. 0. 0. 0. 0. 0.
      0. 0. 0. 0. 0. 0. 0. 0. 0. 0. 0. 0. 0. 0. 0. 0. 0. 0. 0. 0. 0. 0.
      0. 0. 0. 0. 0. 0. 0. 0. 0. 0. 0. 0. 0. 0. 0. 0. 0. 0. 0. 0. 0. 0.
      0.</_>
    <_>
      1.28648651e+02 1.72297287e+00 0. 3.15878367e+00 0. 5.08277016e+01
      2.44087830e+01 0. 3.90540543e+01 1.72297287e+01 1.43581080e+00
      6.57601318e+01 8.61486435e-01 4.88175659e+01 1.62533783e+02
      5.45608091e+00 255. 2.87162161e+00 6.31756735e+00 2.87162161e+00
      1.80912151e+01 1.41570938e+02 1.34966211e+01 2.75675659e+01
      3.73310804e+00 1.14864862e+00 1.03378372e+01 0. 1.72297287e+00
      2.87162155e-01 8.12668915e+01 0. 0. 2.87162155e-01 2.49831066e+01
      2.06756744e+01 3.15878367e+00 0. 1.26351347e+01 2.58445930e+00
      1.37837830e+01 0. 5.16891861e+00 1.72297287e+00 0. 4.88175678e+00
      2.87162155e-01 0. 3.44594574e+00 0. 4.39358101e+01 2.87162155e-01
      2.87162155e-01 0. 0. 4.02027035e+00 5.74324310e-01 0. 0. 0.
      1.43581080e+00 0. 0. 0. 0. 0. 1.72297287e+01 0. 0. 0.
      2.01013517e+00 0. 0. 1.14864862e+00 2.58445930e+00 5.57094574e+01
      0. 0. 0. 8.61486435e-01 4.88175678e+00 0. 0. 8.61486435e+00 0. 0.
      0. 0. 0. 0. 1.43581080e+00 2.87162155e-01 2.87162155e-01
      1.14864862e+00 0. 3.15878367e+00 1.14864862e+00 0. 2.87162161e+00
      0. 8.61486435e-01 6.89189148e+00 0. 1.72297287e+00 4.88175678e+00
      8.61486435e-01 1.43581080e+00 2.01013517e+00 2.87162155e-01
      5.74324322e+00 3.73310804e+00 6.31756735e+00 1.14864862e+00
      8.61486435e-01 2.29729724e+00 8.32770252e+00 5.74324310e-01 0. 0.
      0. 1.66554050e+01 0. 2.29729724e+00 5.74324310e-01 1.17736483e+01
      7.17905378e+00 1.43581080e+00 2.87162155e-01 1.14864862e+00 0.
      2.58445930e+00 0. 5.74324310e-01 1.43581080e+00 0. 2.87162155e-01
      0. 0. 2.29729724e+00 0. 6.31756735e+00 2.87162155e-01
      1.72297287e+00 0. 0. 5.74324310e-01 1.43581080e+00 4.30743217e+00
      0. 0. 2.87162155e-01 0. 2.87162155e-01 2.29729724e+00 0. 0.
      4.88175678e+00 0. 2.87162155e-01 0. 6.03040504e+00 0. 0.
      1.06250000e+01 6.03040504e+00 2.61317558e+01 1.72297287e+00 0. 0.
      4.02027016e+01 1.99577698e+02 1.14864862e+00 0. 1.72297287e+01
      7.46621609e+00 7.46621609e+00 0. 7.75337830e+01 0. 0. 0. 0. 0. 0.
      0. 0. 0. 0. 0. 0. 0. 0. 0. 0. 0. 0. 0. 0. 0. 0. 0. 0. 0. 0. 0. 0.
      0. 0. 0. 0. 0. 0. 0. 0. 0. 0. 0. 0. 0. 0. 0. 0. 0. 0. 0. 0. 0. 0.
      0. 0. 0. 0. 0. 0. 0. 0. 0. 0. 0. 0. 0. 0. 0. 0. 0. 0. 0. 0. 0. 0.
      0. 0. 0. 0. 0. 0.</_>
    <_>
      2.00606659e+02 0. 0. 9.98043060e-01 0. 9.98043060e-01
      3.74266148e+00 0. 2.99412918e+00 0. 2.49510765e-01 4.99021530e+00
      0. 7.98434448e+00 1.69667320e+01 1.99608612e+00 3.46819954e+01
      2.49510765e-01 1.99608612e+00 1.99608612e+00 1.27250490e+01
      2.96917801e+01 2.74461842e+01 5.98825836e+00 1.02299414e+01
      1.62182007e+01 1.79647751e+01 1.24755383e+00 3.99217224e+00 0.
      1.20014679e+02 0. 0. 2.49510765e-01 2.42025452e+01 6.58708420e+01
      9.48140907e+00 9.23189831e+00 5.63894348e+01 8.73287678e+00
      2.54500980e+01 9.98043060e-01 3.99217224e+00 3.99217224e+00
      2.49510765e-01 1.09784737e+01 7.48532295e-01 0. 9.98043060e-01
      9.98043060e-01 6.98630142e+01 2.99412918e+00 2.99412918e+00
      1.24755383e+00 1.37230921e+01 6.98630142e+00 1.79647751e+01
      6.98630142e+00 9.98043060e-01 0. 9.98043060e+00 0. 0. 0. 0. 0.
      4.19178085e+01 0. 1.69667320e+01 0. 2.07093925e+01 0.
      1.24755383e+00 1.59187866e+02 2.13830719e+02 8.30870819e+01
      3.99217224e+00 0. 0. 1.89378677e+02 255. 4.99021530e-01 0.
      3.29354210e+01 2.74461842e+00 9.98043060e-01 4.99021530e-01
      3.56800385e+01 2.49510765e-01 0. 1.74657536e+01 0. 7.48532295e-01
      4.99021530e+00 2.49510765e-01 7.21086121e+01 9.73091984e+00
      4.99021530e-01 5.56408997e+01 2.49510765e-01 0. 9.15704498e+01 0.
      3.74266148e+00 8.20890427e+01 7.48532295e-01 1.04794521e+01
      2.49510765e-01 0. 1.49706459e+00 9.98043060e-01 2.24559689e+00 0.
      9.98043060e-01 2.74461842e+00 5.23972607e+00 0. 0. 0. 0.
      7.98434448e+00 0. 0. 0. 3.89236794e+01 7.28571472e+01
      4.99021530e+00 0. 0. 0. 0. 0. 1.99608612e+00 2.99412918e+00 0. 0.
      0. 0. 0. 0. 1.99608612e+00 0. 0. 0. 0. 2.49510765e-01 0. 0. 0. 0.
      1.24755383e+00 0. 0. 0. 0. 4.99021530e-01 0. 0. 0. 0. 0. 0. 0.
      4.99021530e-01 0. 1.09784737e+01 0. 4.99021530e-01 2.49510765e-01
      4.99021530e+00 2.47015648e+01 0. 0. 2.49510765e-01 2.49510765e-01
      0. 9.98043060e-01 1.24755383e+01 0. 0. 0. 0. 0. 0. 0. 0. 0. 0. 0.
      0. 0. 0. 0. 0. 0. 0. 0. 0. 0. 0. 0. 0. 0. 0. 0. 0. 0. 0. 0. 0. 0.
      0. 0. 0. 0. 0. 0. 0. 0. 0. 0. 0. 0. 0. 0. 0. 0. 0. 0. 0. 0. 0. 0.
      0. 0. 0. 0. 0. 0. 0. 0. 0. 0. 0. 0. 0. 0. 0. 0. 0. 0. 0. 0. 0. 0.
      0.</_>
    <_>
      1.61381989e+01 6.17533064e+00 7.49273491e+00 8.97481441e+00
      8.72780132e+00 6.42234421e+00 1.02098799e+01 8.72780132e+00
      2.25605412e+01 3.69696465e+01 5.70600586e+01 1.24988693e+02
      9.13948975e+01 255. 1.99833710e+02 1.37421692e+02 1.17084274e+02
      6.10122681e+01 3.46641922e+01 2.01727467e+01 7.65741014e+00
      7.49273491e+00 8.56312561e+00 3.62286067e+00 3.29350972e+00
      4.28156281e+00 4.11688709e+00 3.29350978e-01 2.71714568e+00
      1.31740391e+00 1.03745556e+01 0. 9.88052964e-01 6.58701956e-01
      1.07039070e+01 1.72909260e+01 1.07039070e+00 8.23377430e-01
      1.17742977e+01 2.96415877e+00 8.89247608e+00 1.07039070e+00
      9.88052964e-01 4.52857590e+00 0. 4.03454971e+00 1.97610593e+00 0.
      5.43429136e+00 0. 8.64546299e+00 1.31740391e+00 2.96415877e+00
      6.58701956e-01 5.92831755e+00 9.05715168e-01 7.24572134e+00
      4.94026470e+00 3.29350972e+00 0. 7.57507229e+00 0. 3.95221186e+00
      2.30545688e+00 0. 1.31740391e+00 6.58701944e+00 0. 2.63480783e+00
      1.64675486e+00 2.30545688e+00 0. 0. 1.32563772e+01 2.79948330e+01
      1.08685827e+01 6.58701956e-01 9.88052964e-01 8.23377445e-02
      2.67597675e+01 3.49112053e+01 6.58701956e-01 0. 4.61091375e+00 0.
      6.58701956e-01 0. 6.58701944e+00 0. 0. 9.88052964e-01
      6.58701956e-01 0. 0. 0. 1.97610593e+00 6.58701956e-01 0.
      3.29350978e-01 0. 0. 6.58701956e-01 6.58701956e-01 1.31740391e+00
      6.58701956e-01 0. 6.58701956e-01 0. 0. 6.58701956e-01
      1.31740391e+00 3.29350978e-01 6.58701956e-01 3.29350978e-01
      6.58701956e-01 3.29350978e-01 0. 0. 0. 0. 1.64675486e+00 0. 0. 0.
      6.58701956e-01 0. 3.29350978e-01 0. 0. 3.29350978e-01 0. 0.
      3.29350978e-01 0. 0. 0. 0. 0. 0. 0. 0. 0. 0. 0. 0. 0. 0. 0. 0. 0.
      0. 0. 0. 0. 0. 0. 0. 0. 0. 0. 0. 0. 0. 0. 0. 3.29350978e-01 0. 0.
      0. 0. 9.05715168e-01 0. 0. 0. 0. 0. 8.23377445e-02 3.29350978e-01
      0. 0. 0. 0. 0. 0. 0. 0. 0. 0. 0. 0. 0. 0. 0. 0. 0. 0. 0. 0. 0. 0.
      0. 0. 0. 0. 0. 0. 0. 0. 0. 0. 0. 0. 0. 0. 0. 0. 0. 0. 0. 0. 0. 0.
      0. 0. 0. 0. 0. 0. 0. 0. 0. 0. 0. 0. 0. 0. 0. 0. 0. 0. 0. 0. 0. 0.
      0. 0. 0. 0. 0. 0. 0. 0. 0. 0. 0. 0.</_>
    <_>
      5.07962303e+01 5.41438332e+01 3.26027374e+01 4.01712303e+01
      9.50428085e+01 8.87842407e+01 7.10273972e+01 1.18767120e+02 255.
      7.33561630e+01 1.11780823e+02 1.01883560e+02 1.02465752e+02
      2.44520550e+01 1.68835621e+01 1.51369858e+01 1.55736294e+01
      5.23972607e+00 4.65753412e+00 5.09417772e+00 1.30993152e+00
      1.74657536e+00 1.16438353e+00 5.82191765e-01 1.16438353e+00
      5.82191765e-01 1.89212322e+00 0. 0. 0. 1.04794521e+01 0.
      5.82191765e-01 5.82191765e-01 5.82191753e+00 5.23972607e+00 0.
      5.82191765e-01 4.07534218e+00 5.82191765e-01 6.40410948e+00 0.
      1.74657536e+00 4.65753412e+00 5.82191765e-01 2.32876706e+00 0. 0.
      2.32876706e+00 0. 1.16438351e+01 0. 2.91095877e+00 0.
      5.82191765e-01 1.16438353e+00 5.82191765e-01 2.91095877e+00
      5.82191765e-01 0. 5.82191765e-01 0. 0. 0. 0. 0. 4.65753412e+00
      5.82191765e-01 1.16438353e+00 1.16438353e+00 5.82191765e-01 0.
      5.82191765e-01 4.07534218e+00 1.04794521e+01 1.39726028e+01
      1.74657536e+00 0. 0. 4.07534218e+00 9.89725971e+00 0. 0.
      5.23972607e+00 0. 2.32876706e+00 0. 2.32876706e+00 0. 0.
      1.16438353e+00 0. 0. 1.16438353e+00 0. 5.82191765e-01
      1.16438353e+00 0. 1.16438353e+00 0. 5.82191765e-01 0. 0. 0.
      5.82191765e-01 0. 0. 0. 0. 0. 2.91095877e+00 0. 0. 0.
      1.16438353e+00 1.16438353e+00 0. 0. 0. 0. 4.07534218e+00 0. 0. 0.
      0. 0. 1.16438353e+00 0. 5.82191765e-01 0. 0. 0. 0. 5.82191765e-01
      0. 0. 0. 0. 1.74657536e+00 0. 1.74657536e+00 2.18321919e+00
      1.16438353e+00 1.45547941e-01 0. 5.82191765e-01 0. 0. 0. 0.
      2.91095877e+00 0. 5.82191765e-01 0. 0. 0. 1.16438353e+00 0. 0. 0.
      1.74657536e+00 0. 5.82191765e-01 0. 1.16438353e+00 4.07534218e+00
      5.82191765e-01 1.16438353e+00 0. 2.91095877e+00 9.89725971e+00
      1.16438353e+00 1.74657536e+00 9.31506824e+00 1.16438351e+01
      1.22260275e+01 8.73287678e+00 8.87842464e+00 1.35359583e+01
      1.25171232e+01 0. 0. 0. 0. 0. 0. 0. 0. 0. 0. 0. 0. 0. 0. 0. 0. 0.
      0. 0. 0. 0. 0. 0. 0. 0. 0. 0. 0. 0. 0. 0. 0. 0. 0. 0. 0. 0. 0. 0.
      0. 0. 0. 0. 0. 0. 0. 0. 0. 0. 0. 0. 0. 0. 0. 0. 0. 0. 0. 0. 0. 0.
      0. 0. 0. 0. 0. 0. 0. 0. 0. 0. 0. 0. 0. 0. 0.</_>
    <_>
      1.14179096e+01 9.51492500e+00 8.69935989e+00 1.75346470e+01
      2.67777176e+01 2.63699341e+01 3.28944550e+01 2.99040489e+01
      1.15130592e+02 1.26140717e+02 1.45306503e+02 2.54999985e+02
      1.79560226e+02 1.79968002e+02 1.22878456e+02 9.73240891e+01
      3.47974396e+01 1.41364594e+01 9.78677940e+00 5.98081017e+00
      2.17483997e+00 9.78677940e+00 3.26225996e+00 2.17483997e+00
      2.71854997e+00 3.26225996e+00 3.26225996e+00 0. 2.17483997e+00
      5.43709993e-01 2.71854997e+00 0. 2.17483997e+00 0. 8.15565014e+00
      7.06822968e+01 0. 5.43709993e-01 6.52451992e+00 0. 5.43709993e+00
      0. 5.43709993e-01 2.71854997e+00 0. 7.61193991e+00 1.63112998e+00
      0. 4.89338970e+00 0. 5.43709993e-01 0. 5.43709993e-01 0.
      1.63112998e+00 5.43709993e-01 3.80596995e+00 3.26225996e+00
      4.89338970e+00 0. 5.98081017e+00 0. 1.63112998e+00 0. 0.
      1.08741999e+00 2.17483997e+00 0. 1.63112998e+00 2.17483997e+00
      5.43709993e-01 0. 5.43709993e-01 4.18656693e+01 4.73027687e+01
      3.80596995e+00 1.63112998e+00 0. 0. 7.66631088e+01 7.55756912e+01
      5.43709993e-01 0. 5.43709993e-01 1.08741999e+00 1.08741999e+00 0.
      5.43709993e-01 0. 0. 0. 0. 0. 0. 0. 0. 0. 0. 0. 0. 0. 0. 0. 0. 0.
      0. 0. 0. 0. 0. 5.43709993e-01 0. 0. 0. 0. 0. 0. 0. 0. 0.
      1.08741999e+00 0. 0. 0. 0. 0. 0. 0. 0. 0. 0. 0. 0. 0. 0. 0. 0. 0.
      0. 0. 1.08741999e+00 0. 0. 0. 0. 0. 0. 0. 0. 0. 0. 0. 0. 0. 0. 0.
      0. 0. 0. 0. 0. 0. 0. 0. 0. 5.43709993e-01 0. 0. 0. 0.
      5.43709993e-01 0. 0. 0. 5.43709993e-01 1.08741999e+00
      1.08741999e+00 3.53411484e+00 6.66044760e+00 2.17483997e+00 0. 0.
      0. 0. 0. 0. 0. 0. 0. 0. 0. 0. 0. 0. 0. 0. 0. 0. 0. 0. 0. 0. 0. 0.
      0. 0. 0. 0. 0. 0. 0. 0. 0. 0. 0. 0. 0. 0. 0. 0. 0. 0. 0. 0. 0. 0.
      0. 0. 0. 0. 0. 0. 0. 0. 0. 0. 0. 0. 0. 0. 0. 0. 0. 0. 0. 0. 0. 0.
      0. 0. 0. 0. 0. 0. 0. 0.</_>
    <_>
      5.68482933e+01 5.57585487e+01 4.72222214e+01 5.83012848e+01
      1.25683762e+02 1.34946579e+02 1.16239319e+02 1.14059830e+02 255.
      9.37179489e+01 7.26495743e+01 5.73931656e+01 5.23076935e+01
      2.03418808e+01 1.08974361e+01 7.26495743e+00 8.71794891e+00
      2.90598297e+00 0. 7.26495743e-01 2.17948723e+00 7.26495743e-01 0.
      1.45299149e+00 7.26495743e-01 0. 7.26495743e-01 0. 7.26495743e-01
      0. 2.17948723e+00 0. 7.26495743e-01 0. 0. 7.26495743e-01
      1.45299149e+00 0. 0. 0. 7.26495743e-01 0. 7.26495743e-01 0. 0.
      7.26495743e-01 0. 0. 0. 0. 1.45299149e+00 7.26495743e-01 0. 0. 0.
      0. 7.26495743e-01 0. 0. 0. 0. 0. 0. 7.26495743e-01 0. 0.
      2.90598297e+00 0. 1.45299149e+00 0. 1.45299149e+00 1.45299149e+00
      0. 1.45299149e+00 0. 5.08547020e+00 0. 0. 0. 7.26495743e-01
      5.08547020e+00 0. 0. 5.08547020e+00 7.26495743e-01 7.26495743e-01
      0. 2.17948723e+00 0. 0. 7.26495743e-01 0. 0. 7.26495743e-01 0.
      7.26495743e-01 7.26495743e-01 0. 0. 0. 0. 7.26495743e-01 0.
      2.17948723e+00 0. 0. 7.26495743e-01 0. 0. 1.45299149e+00
      4.35897446e+00 7.26495743e-01 0. 0. 0. 7.26495743e-01 0. 0. 0. 0.
      5.08547020e+00 0. 0. 0. 7.26495743e-01 7.26495743e-01 0. 0. 0. 0.
      7.26495743e-01 0. 7.26495743e-01 0. 0. 0. 0. 0. 0. 7.26495743e-01
      2.17948723e+00 0. 0. 0. 0. 0. 0. 0. 0. 0. 7.26495743e-01
      7.26495743e-01 0. 0. 0. 0. 7.26495743e-01 0. 0. 7.26495743e-01
      5.08547020e+00 7.26495743e-01 0. 5.08547020e+00 2.17948723e+00
      2.17948723e+00 4.35897446e+00 3.63247871e+00 7.26495743e-01
      1.45299149e+00 9.44444466e+00 0. 2.90598297e+00 5.81196594e+00
      1.16239319e+01 1.59829063e+01 2.10683765e+01 2.61538467e+01
      3.48717957e+01 1.96153851e+01 0. 0. 0. 0. 0. 0. 0. 0. 0. 0. 0. 0.
      0. 0. 0. 0. 0. 0. 0. 0. 0. 0. 0. 0. 0. 0. 0. 0. 0. 0. 0. 0. 0. 0.
      0. 0. 0. 0. 0. 0. 0. 0. 0. 0. 0. 0. 0. 0. 0. 0. 0. 0. 0. 0. 0. 0.
      0. 0. 0. 0. 0. 0. 0. 0. 0. 0. 0. 0. 0. 0. 0. 0. 0. 0. 0. 0.</_>
    <_>
      1.56122452e+02 255. 1.30969391e+02 1.87346939e+02 2.17704086e+02
      1.22295921e+02 1.25765305e+02 6.85204086e+01 1.33571426e+02
      4.59693871e+01 2.42857151e+01 1.56122446e+01 2.34183674e+01
      5.20408154e+00 4.33673477e+00 2.60204077e+00 8.67346954e+00
      2.60204077e+00 0. 0. 5.20408154e+00 3.46938777e+00 8.67346942e-01
      2.60204077e+00 8.67346942e-01 8.67346942e-01 8.67346942e-01 0. 0.
      0. 1.82142849e+01 0. 0. 0. 2.60204077e+00 1.04081631e+01
      1.73469388e+00 0. 1.73469388e+00 8.67346942e-01 5.20408154e+00 0.
      5.20408154e+00 5.20408154e+00 0. 1.73469388e+00 2.60204077e+00 0.
      3.46938777e+00 8.67346942e-01 1.47448978e+01 8.67346954e+00
      4.33673477e+00 0. 0. 1.04081631e+01 8.67346942e-01 0. 0. 0.
      1.73469388e+00 0. 0. 8.67346942e-01 0. 0. 4.33673477e+00 0. 0. 0.
      1.73469388e+00 8.67346942e-01 0. 0. 0. 2.08163261e+01 0. 0. 0. 0.
      0. 0. 0. 6.93877554e+00 0. 8.67346942e-01 0. 1.73469388e+00 0. 0.
      8.67346942e-01 0. 0. 0. 0. 0. 1.73469388e+00 0. 0. 0. 0. 0. 0.
      8.67346942e-01 0. 0. 0. 0. 0. 8.67346942e-01 8.67346954e+00 0. 0.
      0. 1.73469388e+00 0. 0. 0. 0. 0. 7.80612230e+00 0. 0. 0.
      8.67346942e-01 3.46938777e+00 6.93877554e+00 0. 2.60204077e+00
      8.67346942e-01 8.67346942e-01 8.67346942e-01 8.67346942e-01
      8.67346942e-01 8.67346942e-01 1.73469388e+00 0. 0. 6.93877554e+00
      0. 2.60204077e+00 2.60204077e+00 2.60204077e+00 0. 0.
      1.73469388e+00 8.67346942e-01 0. 0. 0. 8.67346942e-01 0. 0. 0. 0.
      1.73469388e+00 3.46938777e+00 3.46938777e+00 1.73469388e+00
      2.60204077e+00 2.60204077e+00 5.20408154e+00 1.73469388e+00
      9.54081631e+00 1.73469388e+00 6.07142878e+00 5.20408154e+00
      4.33673477e+00 1.04081631e+01 2.60204077e+00 8.06632690e+01
      6.93877554e+00 1.99489803e+01 1.04081631e+01 2.34183674e+01
      5.72448997e+01 1.10153061e+02 1.53520416e+02 1.16224487e+02
      9.62755127e+01 0. 0. 0. 0. 0. 0. 0. 0. 0. 0. 0. 0. 0. 0. 0. 0. 0.
      0. 0. 0. 0. 0. 0. 0. 0. 0. 0. 0. 0. 0. 0. 0. 0. 0. 0. 0. 0. 0. 0.
      0. 0. 0. 0. 0. 0. 0. 0. 0. 0. 0. 0. 0. 0. 0. 0. 0. 0. 0. 0. 0. 0.
      0. 0. 0. 0. 0. 0. 0. 0. 0. 0. 0. 0. 0. 0. 0.</_>
    <_>
      8.15306091e+01 5.11734695e+01 2.77551022e+01 4.25000000e+01
      9.10714264e+01 7.97959213e+01 8.84693909e+01 8.41326523e+01 255.
      2.36785721e+02 1.53520416e+02 1.77806122e+02 1.08418365e+02
      4.94387741e+01 2.42857151e+01 1.73469391e+01 1.56122446e+01
      7.80612230e+00 4.33673477e+00 1.73469388e+00 4.33673477e+00
      6.07142878e+00 3.46938777e+00 8.67346942e-01 1.73469388e+00
      8.67346942e-01 8.67346942e-01 0. 8.67346942e-01 8.67346942e-01
      2.86224499e+01 0. 0. 0. 0. 3.46938777e+00 2.60204077e+00 0.
      2.60204077e+00 0. 1.73469388e+00 0. 1.73469388e+00 8.67346942e-01
      0. 0. 0. 0. 8.67346942e-01 0. 1.64795914e+01 8.67346942e-01 0. 0.
      0. 8.67346942e-01 0. 0. 0. 0. 1.73469388e+00 0. 0. 8.67346942e-01
      0. 0. 1.64795914e+01 0. 3.46938777e+00 5.20408154e+00
      6.07142878e+00 0. 0. 3.38265305e+01 6.76530609e+01 2.51530609e+01
      8.67346954e+00 0. 0. 8.23979568e+01 7.28571396e+01 0. 0.
      6.07142878e+00 0. 3.46938777e+00 0. 1.12755098e+01 0. 0.
      1.73469388e+00 0. 8.67346942e-01 0. 0. 1.73469388e+00 0. 0.
      8.67346942e-01 0. 0. 0. 0. 1.73469388e+00 1.73469388e+00 0. 0. 0.
      0. 2.60204077e+00 3.46938777e+00 2.60204077e+00 0. 0. 0.
      3.46938777e+00 0. 0. 0. 0. 1.21428576e+01 0. 0. 0. 8.67346954e+00
      9.54081631e+00 0. 0. 1.73469388e+00 0. 2.60204077e+00 0. 0.
      8.67346942e-01 0. 8.67346942e-01 0. 0. 1.73469388e+00 0. 0. 0.
      8.67346942e-01 0. 0. 0. 0. 1.73469388e+00 0. 0. 8.67346942e-01 0.
      0. 0. 0. 0. 8.67346942e-01 0. 0. 0. 0. 0. 0. 0. 8.67346942e-01
      9.54081631e+00 1.73469388e+00 1.73469388e+00 8.67346942e-01 0.
      1.04081631e+01 0. 0. 2.60204077e+00 2.60204077e+00 3.46938777e+00
      6.93877554e+00 1.56122446e+01 8.67346954e+00 1.56122446e+01 0. 0.
      0. 0. 0. 0. 0. 0. 0. 0. 0. 0. 0. 0. 0. 0. 0. 0. 0. 0. 0. 0. 0. 0.
      0. 0. 0. 0. 0. 0. 0. 0. 0. 0. 0. 0. 0. 0. 0. 0. 0. 0. 0. 0. 0. 0.
      0. 0. 0. 0. 0. 0. 0. 0. 0. 0. 0. 0. 0. 0. 0. 0. 0. 0. 0. 0. 0. 0.
      0. 0. 0. 0. 0. 0. 0. 0.</_>
    <_>
      8.47258072e+01 8.80161285e+01 8.14354858e+01 7.73225784e+01
      1.50532257e+02 1.61225800e+02 1.21741936e+02 1.17629028e+02 255.
      8.30806427e+01 5.59354820e+01 4.85322571e+01 2.71451607e+01
      1.31612902e+01 6.58064508e+00 4.11290312e+00 6.58064508e+00
      8.22580636e-01 0. 0. 8.22580624e+00 2.46774197e+00 0.
      1.64516127e+00 0. 0. 8.22580636e-01 0. 8.22580636e-01 0.
      1.23387098e+01 0. 0. 0. 0. 2.46774197e+00 4.11290312e+00 0. 0. 0.
      8.22580636e-01 0. 1.64516127e+00 1.64516127e+00 0. 8.22580636e-01
      0. 0. 0. 0. 1.23387098e+01 0. 0. 0. 0. 4.11290312e+00 0. 0. 0. 0.
      0. 0. 0. 0. 0. 0. 6.58064508e+00 0. 6.58064508e+00 8.22580636e-01
      1.64516127e+00 0. 0. 2.30322571e+01 5.26451607e+01 2.63225803e+01
      3.29032254e+00 0. 0. 5.26451607e+01 6.33387108e+01 0. 0.
      8.22580624e+00 8.22580636e-01 0. 0. 1.15161285e+01 0. 0. 0. 0. 0.
      0. 0. 0. 1.64516127e+00 0. 1.64516127e+00 0. 0. 7.40322590e+00 0.
      2.46774197e+00 0. 0. 8.22580636e-01 0. 0. 0. 8.22580636e-01
      2.46774197e+00 0. 0. 0. 1.64516127e+00 0. 0. 0. 0. 6.58064508e+00
      0. 0. 0. 2.46774197e+00 1.64516127e+00 0. 0. 0. 0. 0. 0. 0. 0. 0.
      0. 8.22580636e-01 0. 0. 0. 3.29032254e+00 0. 0. 0. 0. 0.
      8.22580636e-01 2.46774197e+00 0. 0. 8.22580636e-01 0. 0. 0. 0.
      8.22580636e-01 1.64516127e+00 0. 0. 8.22580636e-01 2.46774197e+00
      0. 0. 0. 0. 9.87096786e+00 2.46774197e+00 6.58064508e+00
      4.11290312e+00 2.46774197e+00 2.96129036e+01 1.64516127e+00
      3.29032254e+00 1.15161285e+01 1.23387098e+01 2.46774197e+01
      3.04354839e+01 4.35967751e+01 2.96129036e+01 2.38548393e+01 0. 0.
      0. 0. 0. 0. 0. 0. 0. 0. 0. 0. 0. 0. 0. 0. 0. 0. 0. 0. 0. 0. 0. 0.
      0. 0. 0. 0. 0. 0. 0. 0. 0. 0. 0. 0. 0. 0. 0. 0. 0. 0. 0. 0. 0. 0.
      0. 0. 0. 0. 0. 0. 0. 0. 0. 0. 0. 0. 0. 0. 0. 0. 0. 0. 0. 0. 0. 0.
      0. 0. 0. 0. 0. 0. 0. 0.</_>
    <_>
      1.59645233e+02 0. 0. 0. 0. 0. 2.57367790e-01 0. 0. 0. 0.
      1.54420674e-01 0. 5.14735579e-02 2.57367790e-02 0. 7.72103369e-02
      0. 0. 1.02947116e-01 1.41552281e+00 2.05894232e-01 0.
      5.14735579e-02 1.54420674e-01 2.57367790e-02 2.57367790e-02 0. 0.
      0. 5.03411407e+01 0. 0. 0. 2.04092655e+01 2.84391403e+01
      5.61061764e+00 0. 6.94893003e-01 7.72103369e-02 5.66209137e-01 0.
      1.54420674e+00 2.31631011e-01 0. 1.80157453e-01 1.02947116e-01 0.
      5.14735579e-02 0. 1.34603357e+01 4.37525243e-01 1.80157453e-01
      6.17682695e-01 3.98920083e+00 7.46366620e-01 5.97093296e+00
      4.34951544e+00 1.02947116e-01 0. 7.82398081e+00 0. 0.
      2.31631011e-01 0. 3.86051685e-01 2.54022007e+01 2.57367790e-02
      6.25403738e+00 2.31631011e-01 4.68409395e+00 2.57367790e-01
      1.02947116e-01 1.35529877e+02 1.48732849e+02 2.61485672e+01
      2.83104569e-01 6.94893003e-01 0. 255. 2.40716095e+02
      1.80157453e-01 5.14735579e-02 1.10410786e+01 3.08841348e-01
      5.66209137e-01 1.02947116e-01 2.74868793e+01 0. 0. 1.62141705e+00
      2.05894232e-01 1.02947116e-01 9.41966152e+00 2.57367790e-02
      6.27720032e+01 5.63635445e+00 0. 5.58230743e+01 1.02947116e-01 0.
      8.83800964e+01 0. 9.80571270e+00 9.47113495e+01 5.14735579e-02
      8.08134842e+00 1.28683895e-01 2.57367790e-02 3.75756979e+00
      2.54794121e+00 4.70983076e+00 1.28683895e-01 1.80157453e-01
      8.23576927e-01 1.10668154e+01 1.28683895e-01 0. 2.57367790e-02 0.
      1.61626968e+01 0. 2.31631011e-01 0. 5.99152222e+01 6.86142502e+01
      1.00373435e+00 0. 1.54420674e-01 0. 1.44125962e+00 0.
      5.14735579e-02 3.80904341e+00 0. 1.28683895e-01 2.57367790e-02 0.
      3.08841348e-01 0. 4.88998801e-01 2.31631011e-01 1.54420674e-01 0.
      0. 2.57367790e-02 1.54420674e-01 5.14735579e-02 0. 0.
      1.28683895e-01 0. 0. 1.02947116e-01 0. 0. 3.08841348e-01 0. 0. 0.
      5.14735579e-02 0. 0. 2.57367790e-02 7.72103369e-02 5.04440880e+00
      0. 0. 0. 0. 5.40472388e-01 0. 0. 6.17682695e-01 0. 2.57367790e-02
      0. 4.63262022e-01 0. 0. 0. 0. 0. 0. 0. 0. 0. 0. 0. 0. 0. 0. 0. 0.
      0. 0. 0. 0. 0. 0. 0. 0. 0. 0. 0. 0. 0. 0. 0. 0. 0. 0. 0. 0. 0. 0.
      0. 0. 0. 0. 0. 0. 0. 0. 0. 0. 0. 0. 0. 0. 0. 0. 0. 0. 0. 0. 0. 0.
      0. 0. 0. 0. 0. 0. 0. 0. 0. 0. 0. 0. 0. 0. 0. 0. 0. 0.</_>
    <_>
      4.74418602e+01 0. 0. 0. 0. 0. 3.95348847e-01 0. 0. 0. 0. 0. 0. 0.
      0. 0. 3.95348847e-01 0. 0. 0. 3.95348835e+00 0. 0. 0. 0. 0. 0. 0.
      0. 0. 34. 0. 0. 0. 1.02790699e+01 1.66046524e+01 2.76744199e+00
      3.95348847e-01 1.22558146e+01 1.58139539e+00 8.69767475e+00 0.
      7.90697670e+00 1.18604660e+00 0. 1.58139539e+00 2.37209320e+00 0.
      2.37209320e+00 0. 2.76744194e+01 2.37209320e+00 1.18604660e+00
      2.37209320e+00 9.09302330e+00 7.90697694e-01 8.30232620e+00
      8.69767475e+00 1.58139539e+00 0. 8.30232620e+00 0. 1.18604660e+00
      0. 0. 1.18604660e+00 2.21395359e+01 0. 2.09534893e+01
      9.09302330e+00 1.66046524e+01 1.58139539e+00 1.18604660e+00
      1.71976746e+02 2.02418610e+02 2.53023262e+01 2.05581398e+01
      2.60930233e+01 0. 1.81069778e+02 255. 3.08372097e+01
      3.95348847e-01 5.53488398e+00 5.93023252e+00 2.37209320e+00
      3.95348847e-01 3.91395340e+01 3.95348847e-01 1.18604660e+00
      2.60930233e+01 1.18604660e+00 1.97674417e+00 2.53023262e+01 0.
      6.28604660e+01 7.51162815e+00 0. 4.54651184e+01 1.18604660e+00
      3.95348847e-01 4.94186058e+01 1.18604660e+00 1.02790699e+01
      7.78837204e+01 1.97674417e+00 2.92558155e+01 1.58139539e+00
      1.97674417e+00 2.37209320e+00 3.16279078e+00 3.95348835e+00
      7.90697694e-01 0. 3.16279078e+00 3.16279078e+00 3.95348847e-01 0.
      0. 0. 1.26511631e+01 0. 7.90697694e-01 0. 6.72093058e+00
      5.93023252e+00 7.90697694e-01 0. 3.95348847e-01 0. 1.58139539e+00
      0. 0. 3.95348847e-01 0. 0. 0. 0. 0. 0. 1.58139539e+00
      3.95348847e-01 0. 0. 0. 0. 3.95348847e-01 0. 0. 0. 3.95348847e-01
      0. 0. 0. 0. 0. 0. 0. 0. 0. 0. 0. 0. 3.95348847e-01 0.
      5.53488398e+00 0. 0. 0. 1.18604660e+00 0. 0. 0. 0. 0. 0. 0.
      1.58139539e+00 0. 0. 0. 0. 0. 0. 0. 0. 0. 0. 0. 0. 0. 0. 0. 0. 0.
      0. 0. 0. 0. 0. 0. 0. 0. 0. 0. 0. 0. 0. 0. 0. 0. 0. 0. 0. 0. 0. 0.
      0. 0. 0. 0. 0. 0. 0. 0. 0. 0. 0. 0. 0. 0. 0. 0. 0. 0. 0. 0. 0. 0.
      0. 0. 0. 0. 0. 0. 0. 0. 0. 0. 0. 0. 0. 0. 0. 0. 0.</_>
    <_>
      1.06164658e+02 0. 0. 0. 0. 0. 3.41365457e-01 0. 0. 0. 0. 0. 0.
      3.41365457e-01 0. 0. 0. 0. 0. 0. 2.38955832e+00 0. 0. 0. 0.
      1.02409637e+00 0. 0. 0. 0. 5.83734932e+01 0. 0. 0. 6.82730913e-01
      4.09638548e+00 6.48594379e+00 0. 0. 0. 0. 0. 3.75502014e+00
      1.02409637e+00 0. 0. 0. 0. 0. 0. 9.89959812e+00 1.36546183e+00 0.
      3.41365457e-01 6.82730913e-01 1.70682728e+00 6.82730913e-01
      6.82730913e-01 0. 0. 2.04819274e+00 0. 0. 6.82730913e-01 0.
      6.82730913e-01 1.94578304e+01 0. 1.46787148e+01 2.38955832e+00
      6.14457798e+00 0. 0. 1.91164658e+02 2.20522079e+02 1.12650604e+01
      2.38955832e+00 0. 0. 2.12329315e+02 255. 1.02409637e+00 0.
      4.77911663e+00 4.77911663e+00 2.38955832e+00 0. 3.68674698e+01
      3.07228899e+00 3.41365457e-01 5.46184731e+00 3.41365457e-01
      1.02409637e+00 3.41365457e+00 0. 5.32530098e+01 9.21686745e+00 0.
      4.26706810e+01 1.36546183e+00 1.70682728e+00 5.35943756e+01
      3.41365457e-01 8.87550163e+00 7.10040131e+01 0. 1.12650604e+01 0.
      6.82730913e-01 1.36546183e+00 6.82730913e-01 2.38955832e+00
      3.41365457e-01 3.41365457e-01 6.82730913e-01 6.48594379e+00
      3.41365457e-01 0. 0. 0. 1.84337349e+01 0. 3.41365457e-01 0.
      3.24297180e+01 4.57429695e+01 4.77911663e+00 0. 3.41365457e-01 0.
      1.36546183e+00 0. 0. 1.02409637e+00 0. 0. 0. 0. 0. 0.
      3.41365457e-01 3.41365457e-01 0. 0. 0. 0. 0. 0. 0. 0. 0. 0. 0. 0.
      0. 0. 0. 0. 0. 0. 0. 0. 0. 0. 0. 3.41365457e+00 0. 0. 0. 0. 0. 0.
      0. 6.82730913e-01 0. 3.41365457e-01 0. 0. 0. 0. 0. 0. 0. 0. 0. 0.
      0. 0. 0. 0. 0. 0. 0. 0. 0. 0. 0. 0. 0. 0. 0. 0. 0. 0. 0. 0. 0. 0.
      0. 0. 0. 0. 0. 0. 0. 0. 0. 0. 0. 0. 0. 0. 0. 0. 0. 0. 0. 0. 0. 0.
      0. 0. 0. 0. 0. 0. 0. 0. 0. 0. 0. 0. 0. 0. 0. 0. 0. 0. 0. 0. 0. 0.
      0. 0. 0. 0.</_>
    <_>
      6.95000000e+01 0. 0. 0. 0. 5.00000000e-01 0. 0. 5.00000000e-01
      2.08333343e-01 5.00000000e-01 1. 1.66666672e-01 6.66666687e-01
      2.20833349e+00 3.33333343e-01 6.66666687e-01 3.33333343e-01 0.
      5.83333373e-01 2.83333349e+00 3.33333343e-01 3.33333343e-01 0.
      1.66666672e-01 0. 1.66666672e-01 0. 0. 0. 3.98333359e+01 0.
      6.66666687e-01 0. 17. 2.45833340e+01 2.54166675e+00 1.16666675e+00
      1.00416670e+01 1.33333337e+00 4.66666698e+00 3.33333343e-01
      1.16666675e+00 8.33333373e-01 1.66666672e-01 2.16666675e+00
      2.66666675e+00 5.00000000e-01 6. 3.33333343e-01 17. 1.66666675e+00
      8.33333373e-01 4.50000000e+00 1.35000000e+01 1.16666675e+00
      1.78333340e+01 11. 2. 0. 1.05000000e+01 0. 1. 2.33333349e+00 0. 2.
      1.25000000e+01 0. 1.85000000e+01 2. 6.16666698e+00 0.
      4.16666679e-02 152. 1.76125000e+02 16. 1.33333337e+00
      2.66666675e+00 0. 1.90500000e+02 255. 8.33333373e-01 0. 4. 0.
      5.00000000e-01 0. 2.56666679e+01 1.66666672e-01 6.66666687e-01
      4.83333349e+00 3.33333343e-01 8.33333373e-01 8.83333397e+00 0.
      6.05000000e+01 6.66666698e+00 0. 6.01666679e+01 1.66666672e-01
      3.33333343e-01 5.23333359e+01 1.66666672e-01 8.83333397e+00
      7.81666718e+01 1.83333337e+00 1.63333340e+01 3.33333349e+00
      8.33333373e-01 6.66666698e+00 3.25000000e+00 5.66666698e+00
      1.50000000e+00 1.66666672e-01 9.16666687e-01 6.33333349e+00
      1.08333337e+00 0. 1.66666672e-01 3.75000000e-01 9.70833397e+00 0.
      5.00000000e-01 1. 1.41666670e+01 1.58333340e+01 1. 0.
      1.66666672e-01 0. 6.66666687e-01 0. 1.66666672e-01 1.
      1.66666672e-01 0. 5.00000000e-01 0. 6.66666687e-01 0. 2.
      1.66666672e-01 1.66666672e-01 0. 0. 0. 1.66666672e-01
      6.66666687e-01 0. 0. 1.66666672e-01 0. 1.66666672e-01
      3.33333343e-01 0. 1.66666672e-01 0. 0. 0. 0. 1.66666672e-01 0. 0.
      0. 0. 7.33333349e+00 0. 0. 0. 3.33333343e-01 5.00000000e-01 0. 0.
      1.66666672e-01 0. 0. 0. 3.33333343e-01 0. 0. 0. 0. 0. 0. 0. 0. 0.
      0. 0. 0. 0. 0. 0. 0. 0. 0. 0. 0. 0. 0. 0. 0. 0. 0. 0. 0. 0. 0. 0.
      0. 0. 0. 0. 0. 0. 0. 0. 0. 0. 0. 0. 0. 0. 0. 0. 0. 0. 0. 0. 0. 0.
      0. 0. 0. 0. 0. 0. 0. 0. 0. 0. 0. 0. 0. 0. 0. 0. 0. 0. 0. 0. 0. 0.
      0. 0. 0.</_>
    <_>
      1.08949608e+02 7.23917663e-01 7.23917663e-01 9.04897094e-01
      2.35273242e+00 3.25762939e+00 4.34350586e+00 3.43860888e+00
      6.33427954e+00 3.07665014e+00 4.16252661e+00 5.42938232e+00
      2.35273242e+00 2.71469116e+00 3.07665014e+00 2.17175293e+00
      2.89567065e+00 7.23917663e-01 1.80979416e-01 1.44783533e+00
      7.23917675e+00 2.53371191e+00 9.04897094e-01 3.61958832e-01
      2.17175293e+00 0. 1.26685596e+00 1.80979416e-01 0. 0.
      7.27537231e+01 0. 1.62881470e+00 0. 6.33427963e+01 4.90454216e+01
      6.15330029e+00 1.08587646e+00 2.60610352e+01 3.80056763e+00
      2.87757263e+01 5.42938232e-01 1.44783535e+01 4.52448559e+00 0.
      2.53371191e+00 3.61958832e-01 3.61958832e-01 7.60113525e+00 0.
      6.08090820e+01 2.35273242e+00 6.33427954e+00 2.35273242e+00
      1.17636623e+01 5.06742382e+00 2.40702629e+01 4.10823288e+01
      3.98154712e+00 0. 4.03584099e+01 0. 6.51525879e+00 2.17175293e+00
      0. 3.07665014e+00 2.93186646e+01 1.08587646e+00 2.58800564e+01
      6.51525879e+00 9.77288818e+00 5.42938232e-01 3.61958832e-01
      1.53289566e+02 1.82608231e+02 8.50603256e+01 1.26685596e+00
      1.80979416e-01 0. 2.02154007e+02 255. 0. 0. 1.84598999e+01
      3.61958832e-01 3.25762939e+00 0. 4.97693405e+01 1.80979416e-01 0.
      8.14407349e+00 0. 1.80979416e-01 6.33427954e+00 0. 5.48367615e+01
      9.59190941e+00 0. 5.23030510e+01 0. 0. 6.24378967e+01
      1.80979416e-01 1.10397444e+01 6.89531555e+01 3.61958832e-01
      1.39354153e+01 1.80979416e-01 1.80979416e-01 4.52448559e+00
      9.59190941e+00 2.53371191e+00 0. 9.04897094e-01 3.07665014e+00
      2.89567070e+01 0. 0. 0. 0. 2.66039734e+01 0. 0. 0. 3.16713982e+01
      3.02235622e+01 2.89567065e+00 0. 1.44783533e+00 0. 2.35273242e+00
      0. 1.80979416e-01 5.24840307e+00 0. 1.80979416e-01 0. 0.
      5.42938232e-01 0. 4.16252661e+00 5.42938232e-01 1.80979416e-01 0.
      0. 0. 3.61958832e-01 3.61958832e-01 0. 0. 7.23917663e-01 0. 0.
      1.80979416e-01 0. 0. 3.61958832e-01 0. 0. 0. 1.80979416e-01 0. 0.
      5.42938232e-01 1.44783533e+00 1.91838188e+01 3.61958832e-01 0. 0.
      7.23917663e-01 3.61958838e+00 0. 0. 2.17175293e+00 0.
      1.80979416e-01 0. 2.71469116e+00 0. 3.61958832e-01 0. 0. 0. 0. 0.
      0. 0. 0. 0. 0. 0. 0. 0. 0. 0. 0. 0. 0. 0. 0. 0. 0. 0. 0. 0. 0. 0.
      0. 0. 0. 0. 0. 0. 0. 0. 0. 0. 0. 0. 0. 0. 0. 0. 0. 0. 0. 0. 0. 0.
      0. 0. 0. 0. 0. 0. 0. 0. 0. 0. 0. 0. 0. 0. 0. 0. 0. 0. 0. 0. 0. 0.
      0. 0. 0. 0. 0.</_>
    <_>
      255. 3.80597019e+00 0. 2.53731346e+00 0. 3.42537308e+01
      5.70895538e+01 3.80597019e+00 2.18843288e+01 3.33022385e+01
      4.37686577e+01 4.82089539e+01 0. 4.09141808e+01 4.34514923e+01
      8.24626923e+00 7.04104462e+01 4.44029856e+00 0. 2.53731346e+00
      3.80597000e+01 3.42537308e+01 3.80597019e+00 5.07462692e+00
      7.61194038e+00 0. 1.26865673e+00 0. 1.26865673e+00 0.
      1.38283585e+02 0. 0. 0. 2.53731346e+00 5.07462692e+00
      2.02985077e+01 0. 5.07462692e+00 0. 1.26865673e+00 0.
      2.66417923e+01 0. 0. 1.26865673e+00 0. 0. 2.53731346e+00 0.
      8.62686615e+01 0. 0. 0. 0. 6.34328365e+00 0. 0. 0. 0.
      5.07462692e+00 0. 0. 0. 0. 0. 3.55223885e+01 0. 0. 0.
      1.14179106e+01 0. 0. 2.53731346e+00 0. 7.73880615e+01 0. 0. 0. 0.
      2.53731346e+00 0. 0. 1.26865673e+01 0. 0. 0. 0. 0. 0.
      1.26865673e+00 0. 0. 0. 0. 0. 3.80597019e+00 0. 0. 0. 0. 0. 0.
      1.14179106e+01 1.26865673e+00 0. 1.01492538e+01 0. 0.
      2.28358212e+01 5.07462692e+00 2.28358212e+01 0. 6.34328365e+00
      5.07462692e+00 7.86567154e+01 2.53731346e+00 0. 0. 0.
      1.28134323e+02 0. 0. 0. 1.97910446e+02 1.81417908e+02
      1.39552240e+01 0. 7.61194038e+00 1.26865673e+00 9.76865692e+01 0.
      6.34328365e+00 6.72388077e+01 0. 5.07462692e+00 0. 0.
      8.37313461e+01 0. 1.26865673e+01 6.08955231e+01 1.00223885e+02 0.
      5.07462692e+00 3.80597019e+00 6.47014923e+01 5.96268654e+01 0. 0.
      1.01492538e+01 0. 1.26865673e+00 3.93283577e+01 0. 3.80597019e+00
      1.39552240e+01 0. 1.26865673e+00 0. 2.53731346e+00 0. 0.
      1.14179106e+01 5.07462692e+00 6.72388077e+01 6.34328365e+00 0. 0.
      2.66417923e+01 1.50970154e+02 0. 0. 3.80597000e+01 3.80597019e+00
      1.26865673e+00 0. 6.34328384e+01 0. 0. 0. 0. 0. 0. 0. 0. 0. 0. 0.
      0. 0. 0. 0. 0. 0. 0. 0. 0. 0. 0. 0. 0. 0. 0. 0. 0. 0. 0. 0. 0. 0.
      0. 0. 0. 0. 0. 0. 0. 0. 0. 0. 0. 0. 0. 0. 0. 0. 0. 0. 0. 0. 0. 0.
      0. 0. 0. 0. 0. 0. 0. 0. 0. 0. 0. 0. 0. 0. 0. 0. 0. 0. 0. 0. 0. 0.
      0.</_>
    <_>
      2.55000015e+02 0. 0. 0. 0. 5.63328445e-01 1.64304123e+01 0.
      1.40832114e+00 4.69440371e-01 0. 1.59609723e+00 0. 2.72275424e+00
      2.91053033e+00 0. 6.19661283e+00 0. 0. 6.57216549e-01
      2.10309296e+01 7.51104593e+00 0. 6.47827721e+00 8.44992638e-01
      7.51104593e-01 1.87776148e-01 0. 0. 0. 1.31912750e+02 0.
      9.38880742e-02 0. 3.06075115e+01 1.11257370e+02 2.34720182e+00
      9.38880742e-02 5.00423431e+01 1.12665689e+00 1.25810022e+01 0.
      8.44992638e-01 7.51104593e-01 0. 1.35198822e+01 4.69440371e-01 0.
      6.94771767e+00 9.38880742e-02 4.21557465e+01 4.69440371e-01
      1.31443310e+00 0. 4.31885147e+00 1.12665689e+00 4.31885147e+00
      2.62886620e+00 2.81664222e-01 0. 5.25773239e+00 0. 1.87776148e-01
      1.87776148e-01 0. 0. 1.59609728e+01 0. 1.31443310e+00
      9.38880742e-02 7.79271030e+00 1.87776148e-01 0. 1.53976440e+01
      2.65703259e+01 7.24815903e+01 1.31443310e+00 9.38880742e-02 0.
      5.49245224e+01 7.29510345e+01 0. 0. 3.02319603e+01 0.
      9.38880742e-02 0. 1.78387344e+00 0. 0. 4.69440371e-01 0. 0. 0. 0.
      9.38880742e-02 2.81664222e-01 0. 1.87776148e-01 0. 0.
      1.87776148e-01 0. 9.38880742e-02 3.75552297e-01 0. 0. 0. 0. 0.
      5.63328445e-01 0. 0. 0. 0. 2.06553769e+00 0. 0. 0. 0.
      3.09830642e+00 0. 0. 0. 2.53497791e+00 3.47385883e+00
      1.87776148e-01 0. 0. 0. 9.38880742e-02 0. 9.38880742e-02
      2.81664222e-01 0. 0. 0. 0. 0. 0. 3.75552297e-01 4.69440371e-01 0.
      0. 0. 6.57216549e-01 9.38880742e-01 0. 0. 0. 9.38880742e-02 0. 0.
      0. 0. 0. 1.40832114e+00 0. 9.38880742e-02 1.03276885e+00
      3.75552297e-01 9.38880742e-02 0. 4.69440371e-01 1.03276885e+00
      3.60530205e+01 0. 0. 0. 7.88659811e+00 6.27172318e+01 0. 0.
      2.61947727e+01 1.03276885e+00 2.72275424e+00 0. 1.15482330e+01 0.
      0. 0. 0. 0. 0. 0. 0. 0. 0. 0. 0. 0. 0. 0. 0. 0. 0. 0. 0. 0. 0. 0.
      0. 0. 0. 0. 0. 0. 0. 0. 0. 0. 0. 0. 0. 0. 0. 0. 0. 0. 0. 0. 0. 0.
      0. 0. 0. 0. 0. 0. 0. 0. 0. 0. 0. 0. 0. 0. 0. 0. 0. 0. 0. 0. 0. 0.
      0. 0. 0. 0. 0. 0. 0. 0. 0. 0. 0.</_>
    <_>
      1.66121170e+02 0. 0. 2.00629428e-01 0. 0. 7.22265959e+00 0.
      4.01258856e-01 0. 0. 3.41070032e+00 0. 1.80566490e+00
      7.62391806e+00 0. 1.92604256e+01 0. 0. 6.01888299e-01
      1.34421721e+01 1.10346184e+01 8.02517712e-01 5.61762381e+00
      1.40440595e+00 8.02517712e-01 8.02517712e-01 0. 0. 0.
      1.76353271e+02 0. 2.00629428e-01 0. 255. 2.44567276e+02
      4.81510639e+00 4.01258856e-01 1.46058228e+02 1.16365070e+01
      1.36428009e+02 0. 7.82454777e+00 6.62077093e+00 0. 2.78874912e+01
      4.01258856e-01 0. 3.19000797e+01 0. 7.76435852e+01 2.20692372e+00
      1.46459484e+01 3.41070032e+00 4.15302925e+01 3.81195903e+00
      5.33674278e+01 7.62391815e+01 8.02517700e+00 0. 9.48977203e+01 0.
      6.01888275e+00 1.20377660e+00 0. 1.40440595e+00 2.54799366e+01
      2.00629428e-01 3.61132979e+00 1.20377660e+00 1.50472069e+01
      2.00629428e-01 0. 8.18568039e+01 1.04929192e+02 9.08851318e+01
      3.00944138e+00 0. 0. 1.20778915e+02 1.22183319e+02 0. 0.
      1.50472069e+01 0. 6.01888299e-01 0. 1.22383947e+01 0. 0.
      1.00314713e+00 0. 0. 2.00629428e-01 0. 2.00629428e-01
      1.40440595e+00 0. 2.00629428e-01 0. 0. 6.01888299e-01 0. 0. 0. 0.
      0. 0. 0. 2.00629428e-01 5.81825352e+00 6.01888299e-01 0.
      2.00629428e-01 6.01888299e-01 1.20377660e+00 0. 0. 2.00629428e-01
      0. 1.30409126e+01 0. 4.01258856e-01 0. 2.40755320e+00
      1.80566490e+00 4.01258856e-01 0. 2.00629428e-01 0. 6.01888299e-01
      0. 0. 4.01258856e-01 0. 0. 0. 0. 0. 0. 2.20692372e+00
      4.01258856e-01 4.01258856e-01 0. 0. 0. 2.00629428e-01
      2.00629428e-01 0. 0. 0. 0. 0. 4.01258856e-01 0. 0. 8.02517712e-01
      0. 0. 0. 2.00629428e-01 0. 0. 6.01888299e-01 0. 2.10660896e+01 0.
      0. 0. 2.40755320e+00 1.58497248e+01 0. 0. 5.81825352e+00 0. 0. 0.
      6.01888275e+00 0. 0. 0. 0. 0. 0. 0. 0. 0. 0. 0. 0. 0. 0. 0. 0. 0.
      0. 0. 0. 0. 0. 0. 0. 0. 0. 0. 0. 0. 0. 0. 0. 0. 0. 0. 0. 0. 0. 0.
      0. 0. 0. 0. 0. 0. 0. 0. 0. 0. 0. 0. 0. 0. 0. 0. 0. 0. 0. 0. 0. 0.
      0. 0. 0. 0. 0. 0. 0. 0. 0. 0. 0. 0. 0. 0. 0. 0. 0.</_>
    <_>
      2.55000015e+02 1.43993843e+00 1.70174551e+00 3.40349102e+00
      4.45071888e+00 9.03234100e+00 2.11409149e+01 9.68685913e+00
      1.08649902e+01 9.88321400e+00 5.03978443e+00 7.13424063e+00
      2.55261827e+00 5.82520580e+00 3.27258754e+00 1.04722798e+00
      7.78875828e+00 5.89065731e-01 7.19969213e-01 1.83264899e+00
      2.08136559e+01 1.02759247e+01 1.63629377e+00 7.33059597e+00
      2.74897337e+00 2.42171478e+00 2.48716640e+00 6.54517487e-02
      1.96355253e-01 3.27258736e-01 1.64480240e+02 0. 1.63629377e+00
      6.54517487e-02 3.20059052e+01 1.06555450e+02 9.94866562e+00
      3.33803916e+00 5.99538002e+01 4.97433281e+00 1.51848059e+01
      7.19969213e-01 9.09779263e+00 3.92710495e+00 4.58162248e-01
      1.13886042e+01 1.17813146e+00 0. 1.07995386e+01 1.30903497e-01
      7.81493912e+01 3.20713568e+00 3.14168406e+00 2.61806989e+00
      1.50539026e+01 4.97433281e+00 1.79992313e+01 1.27630911e+01
      5.23613977e+00 1.96355253e-01 1.70174541e+01 6.54517487e-02
      2.42171478e+00 2.74897337e+00 0. 8.50872755e-01 3.66529808e+01
      9.81776237e-01 7.65785456e+00 3.07623219e+00 2.06827526e+01
      1.96355253e-01 1.30903497e-01 7.57931213e+01 1.07340866e+02
      1.09304420e+02 3.59984612e+00 6.54517487e-02 0. 1.32605240e+02
      2.01460480e+02 3.27258736e-01 0. 3.40349083e+01 3.27258736e-01
      9.81776237e-01 0. 1.26976395e+01 0. 0. 4.58162260e+00 0.
      2.02900410e+00 4.77797747e+00 0. 8.10292664e+01 8.24692059e+00 0.
      6.11319351e+01 3.27258736e-01 0. 1.46677368e+02 0. 2.00282345e+01
      1.39674026e+02 3.27258736e-01 2.75551853e+01 2.61806995e-01
      2.61806995e-01 1.69520035e+01 6.67607832e+00 1.76065197e+01
      2.61806995e-01 1.76719725e+00 4.45071888e+00 3.97292099e+01
      1.30903497e-01 0. 0. 0. 6.13282890e+01 0. 8.50872755e-01 0.
      1.04068283e+02 7.13424072e+01 6.54517508e+00 2.61806995e-01
      2.15990782e+00 1.30903497e-01 1.26976395e+01 1.30903497e-01
      1.50539017e+00 8.18146896e+00 0. 1.70174551e+00 0. 0.
      4.12346029e+00 6.54517487e-02 3.79620147e+00 2.48716640e+00
      2.02900410e+00 0. 5.23613989e-01 7.85421014e-01 1.76719725e+00
      1.89810073e+00 0. 0. 1.17813146e+00 0. 3.92710507e-01
      1.24358320e+00 0. 4.58162248e-01 1.50539017e+00 4.58162248e-01 0.
      2.61806995e-01 9.16324496e-01 6.54517487e-02 0. 4.58162248e-01
      3.92710507e-01 3.23986168e+01 6.54517487e-02 6.54517487e-02 0.
      4.71252584e+00 2.25808525e+01 0. 0. 1.40066738e+01 5.89065731e-01
      5.23613989e-01 6.54517487e-02 7.06878901e+00 2.61806995e-01
      3.92710507e-01 0. 0. 0. 0. 0. 0. 0. 0. 0. 0. 0. 0. 0. 0. 0. 0. 0.
      0. 0. 0. 0. 0. 0. 0. 0. 0. 0. 0. 0. 0. 0. 0. 0. 0. 0. 0. 0. 0. 0.
      0. 0. 0. 0. 0. 0. 0. 0. 0. 0. 0. 0. 0. 0. 0. 0. 0. 0. 0. 0. 0. 0.
      0. 0. 0. 0. 0. 0. 0. 0. 0. 0. 0. 0. 0. 0. 0.</_>
    <_>
      1.03521126e+02 0. 0. 0. 0. 0. 2.11267605e-01 0. 0. 0. 0.
      6.33802831e-01 0. 0. 2.11267605e-01 0. 0. 0. 0. 0. 4.01408434e+00
      6.33802831e-01 0. 2.11267605e-01 0. 4.22535211e-01 0. 0. 0. 0.
      4.16197166e+01 0. 0. 0. 1.26760559e+01 1.71126766e+01
      3.38028169e+00 0. 7.60563374e+00 2.53521132e+00 7.60563374e+00 0.
      2.53521132e+00 1.69014084e+00 0. 1.69014084e+00 8.45070422e-01
      2.11267605e-01 4.43661976e+00 2.11267605e-01 2.07042255e+01
      8.45070422e-01 6.33802831e-01 1.05633807e+00 8.87323952e+00
      8.45070422e-01 1.07746477e+01 3.80281687e+00 1.26760566e+00 0.
      3.59154940e+00 0. 0. 1.26760566e+00 0. 8.45070422e-01
      3.48591537e+01 6.33802831e-01 1.43661976e+01 4.85915470e+00
      8.02816868e+00 0. 0. 1.82746475e+02 2.29014084e+02 2.28169022e+01
      8.45070422e-01 2.11267605e-01 0. 2.06830978e+02 255. 0. 0.
      6.76056337e+00 0. 1.47887325e+00 0. 4.71126747e+01 0. 0.
      2.32394361e+00 0. 0. 5.91549301e+00 0. 4.07746468e+01
      7.60563374e+00 0. 5.11267624e+01 0. 0. 4.41549301e+01 0.
      6.33802795e+00 6.57042236e+01 2.11267605e-01 1.05633802e+01 0. 0.
      1.90140843e+00 1.90140843e+00 2.74647880e+00 2.11267605e-01
      2.11267605e-01 8.45070422e-01 7.81690121e+00 0. 0. 0. 0. 15. 0. 0.
      0. 2.34507046e+01 4.56338043e+01 2.32394361e+00 0. 0. 0.
      4.22535211e-01 0. 2.11267605e-01 2.11267614e+00 0. 0. 0. 0. 0. 0.
      1.05633807e+00 2.11267605e-01 0. 0. 0. 0. 0. 0. 0. 0. 0. 0. 0. 0.
      0. 0. 0. 0. 0. 0. 0. 0. 0. 0. 0. 7.81690121e+00 0. 0. 0.
      1.05633807e+00 1.05633807e+00 0. 0. 2.11267605e-01 0. 0. 0.
      1.05633807e+00 0. 0. 0. 0. 0. 0. 0. 0. 0. 0. 0. 0. 0. 0. 0. 0. 0.
      0. 0. 0. 0. 0. 0. 0. 0. 0. 0. 0. 0. 0. 0. 0. 0. 0. 0. 0. 0. 0. 0.
      0. 0. 0. 0. 0. 0. 0. 0. 0. 0. 0. 0. 0. 0. 0. 0. 0. 0. 0. 0. 0. 0.
      0. 0. 0. 0. 0. 0. 0. 0. 0. 0. 0. 0. 0. 0. 0. 0. 0.</_>
    <_>
      5.04813538e+01 0. 0. 0. 0. 0. 1.72881350e-01 0. 0. 0. 0. 0. 0.
      8.64406765e-01 0. 0. 0. 0. 0. 1.72881350e-01 1.21016943e+00
      1.72881350e-01 0. 0. 6.91525400e-01 5.18644035e-01 0. 0. 0. 0.
      3.56135597e+01 0. 0. 0. 2.59322023e+00 5.18644047e+00
      3.11186433e+00 1.72881350e-01 1.21016943e+00 1.21016943e+00
      5.18644035e-01 0. 3.45762706e+00 1.03728807e+00 0. 8.64406765e-01
      0. 0. 0. 0. 1.53864403e+01 5.18644035e-01 5.18644035e-01 0.
      8.64406765e-01 1.03728807e+00 2.07457614e+00 6.91525400e-01
      8.64406765e-01 0. 2.76610160e+00 0. 1.72881350e-01 3.45762700e-01
      0. 1.72881353e+00 2.14372883e+01 3.11186433e+00 2.95627117e+01
      1.12372875e+01 4.66779661e+00 3.11186433e+00 1.38305080e+00
      2.00542358e+02 2.06593216e+02 1.10644064e+01 3.97627115e+00
      1.03728807e+00 0. 1.63891525e+02 2.54999985e+02 6.91525400e-01 0.
      4.66779661e+00 6.91525400e-01 2.42033887e+00 0. 4.73694916e+01
      1.72881353e+00 6.91525400e-01 2.61050835e+01 1.72881350e-01
      6.91525412e+00 1.19288130e+01 0. 8.47118607e+01 8.81694889e+00 0.
      5.48033867e+01 2.24745750e+00 0. 5.58406754e+01 0. 1.10644064e+01
      7.22644043e+01 1.72881350e-01 1.69423714e+01 0. 3.45762700e-01
      1.55593216e+00 1.90169489e+00 3.28474569e+00 5.18644035e-01
      6.91525400e-01 3.45762700e-01 6.39660978e+00 1.72881350e-01 0. 0.
      0. 1.24474573e+01 0. 0. 0. 3.07728806e+01 2.40305080e+01
      1.03728807e+00 0. 3.45762700e-01 0. 1.72881353e+00 0.
      6.91525400e-01 1.72881350e-01 0. 0. 0. 0. 0. 0. 2.42033887e+00 0.
      0. 0. 0. 0. 0. 1.72881350e-01 0. 0. 1.72881350e-01 0. 0.
      6.91525400e-01 0. 0. 3.45762700e-01 0. 0. 0. 0. 0. 0. 0. 0.
      6.05084705e+00 0. 0. 0. 0. 0. 0. 0. 8.64406765e-01 0. 0. 0. 0. 0.
      0. 0. 0. 0. 0. 0. 0. 0. 0. 0. 0. 0. 0. 0. 0. 0. 0. 0. 0. 0. 0. 0.
      0. 0. 0. 0. 0. 0. 0. 0. 0. 0. 0. 0. 0. 0. 0. 0. 0. 0. 0. 0. 0. 0.
      0. 0. 0. 0. 0. 0. 0. 0. 0. 0. 0. 0. 0. 0. 0. 0. 0. 0. 0. 0. 0. 0.
      0. 0. 0. 0. 0. 0. 0. 0. 0. 0. 0.</_>
    <_>
      1.22523994e+02 0. 0. 0. 0. 0. 0. 0. 0. 0. 0. 0. 0. 0. 0. 0. 0. 0.
      0. 0. 1.95777345e+00 0. 0. 0. 8.15738976e-01 0. 0. 0. 0. 0.
      5.28598862e+01 0. 0. 0. 0. 0. 9.78886724e-01 0. 0. 0.
      1.63147792e-01 0. 4.89443362e-01 1.14203453e+00 0. 0. 0. 0. 0. 0.
      5.54702473e+00 2.12092137e+00 3.26295584e-01 0. 0. 4.89443362e-01
      4.07869482e+00 0. 0. 0. 4.89443398e+00 0. 0. 8.15738976e-01 0.
      1.63147792e-01 2.26775436e+01 0. 7.66794634e+00 3.26295584e-01
      9.13627625e+00 0. 0. 1.85335892e+02 1.81257202e+02 1.09309025e+01
      2.12092137e+00 9.78886724e-01 0. 2.10786942e+02 255.
      6.52591169e-01 0. 3.58925152e+00 3.26295590e+00 1.46833014e+00 0.
      2.75719776e+01 0. 0. 5.54702473e+00 0. 3.26295584e-01
      3.42610359e+00 0. 3.80134354e+01 1.14203453e+00 0. 3.94817657e+01
      0. 0. 4.17658348e+01 0. 1.46833014e+00 5.30230331e+01 0.
      4.24184275e+00 0. 0. 1.63147792e-01 0. 4.89443362e-01 0.
      1.63147792e-01 3.26295584e-01 4.40499020e+00 0. 0. 0. 0.
      3.91554689e+00 0. 0. 0. 3.39347420e+01 7.86372375e+01
      4.40499020e+00 0. 1.63147792e-01 0. 0. 0. 6.52591169e-01
      1.46833014e+00 0. 0. 0. 0. 0. 0. 0. 0. 0. 0. 0. 0. 1.63147792e-01
      0. 0. 0. 0. 0. 0. 0. 0. 0. 0. 0. 0. 0. 0. 0. 0. 0. 0.
      1.79462576e+00 0. 0. 0. 0. 1.63147792e-01 0. 0. 0. 0. 0. 0.
      1.63147792e-01 0. 0. 0. 0. 0. 0. 0. 0. 0. 0. 0. 0. 0. 0. 0. 0. 0.
      0. 0. 0. 0. 0. 0. 0. 0. 0. 0. 0. 0. 0. 0. 0. 0. 0. 0. 0. 0. 0. 0.
      0. 0. 0. 0. 0. 0. 0. 0. 0. 0. 0. 0. 0. 0. 0. 0. 0. 0. 0. 0. 0. 0.
      0. 0. 0. 0. 0. 0. 0. 0. 0. 0. 0. 0. 0. 0. 0. 0. 0.</_>
    <_>
      0. 0. 0. 0. 0. 0. 0. 0. 0. 0. 0. 0. 0. 0. 0. 0. 0. 0. 0. 0.
      4.35153574e-01 0. 0. 0. 0. 0. 0. 0. 0. 0. 3.48122859e+00 0. 0. 0.
      0. 0. 0. 0. 0. 0. 0. 0. 0. 4.35153574e-01 0. 0. 0. 0. 0. 0.
      8.70307148e-01 0. 0. 0. 3.26365173e-01 0. 0. 0. 1.08788393e-01 0.
      8.70307148e-01 0. 0. 5.43941975e-01 0. 0. 2.17576790e+00 0.
      7.61518776e-01 8.70307148e-01 3.04607511e+00 4.35153574e-01
      4.35153574e-01 1.00085325e+01 1.43600683e+01 4.35153574e-01
      3.04607511e+00 4.35153580e+00 0. 7.83276415e+00 1.34897604e+01
      3.04607511e+00 4.35153574e-01 8.70307148e-01 5.22184277e+00
      1.09876280e+01 1.29458189e+01 3.56825943e+01 1.04436855e+01
      2.95904427e+01 1.53609207e+02 2.78498287e+01 2.69795208e+01
      8.48549500e+01 3.48122859e+00 255. 1.03348970e+01 1.00085325e+01
      1.07047783e+02 1.69709892e+01 1.99082756e+01 9.63865204e+01
      2.54564838e+01 5.74402733e+01 7.49552002e+01 3.17662106e+01
      3.01343842e+01 2.39334469e+01 5.22184277e+00 2.61092148e+01
      1.39249144e+01 3.26365166e+01 1.17491465e+01 4.35153580e+00
      8.26791763e+00 8.26791763e+00 3.91638207e+00 0. 8.70307148e-01 0.
      1.74061430e+00 0. 1.30546069e+00 0. 2.61092138e+00 3.04607511e+00
      8.70307148e-01 4.35153574e-01 0. 0. 1.30546069e+00 0.
      8.70307148e-01 1.74061430e+00 0. 0. 0. 0. 4.35153574e-01 0. 0.
      4.35153574e-01 0. 0. 4.35153574e-01 4.35153574e-01 0. 0. 0. 0. 0.
      0. 0. 0. 0. 0. 0. 0. 0. 0. 0. 0. 0. 0. 0. 0. 0. 0. 0. 0. 0. 0. 0.
      0. 0. 0. 0. 0. 0. 0. 0. 0. 0. 0. 0. 0. 0. 0. 0. 0. 0. 0. 0. 0. 0.
      0. 0. 0. 0. 0. 0. 0. 0. 0. 0. 0. 0. 0. 0. 0. 0. 0. 0. 0. 0. 0. 0.
      0. 0. 0. 0. 0. 0. 0. 0. 0. 0. 0. 0. 0. 0. 0. 0. 0. 0. 0. 0. 0. 0.
      0. 0. 0. 0. 0. 0. 0. 0. 0. 0. 0. 0. 0. 0. 0. 0. 0.</_>
    <_>
      255. 0. 2.84916192e-01 2.84916192e-01 4.74860340e-01
      1.80446923e+00 3.89385462e+00 3.79888266e-01 3.79888272e+00
      2.46927381e+00 3.79888272e+00 5.41340780e+00 4.84357548e+00
      1.06368713e+01 1.04469271e+01 5.03351974e+00 1.43407822e+01
      9.68715096e+00 5.22346354e+00 6.83798885e+00 1.20614529e+01
      3.98882675e+00 3.03910613e+00 2.27932954e+00 1.23463690e+00
      3.79888266e-01 8.54748607e-01 2.84916192e-01 3.79888266e-01 0.
      1.40178772e+02 1.89944133e-01 0. 0. 1.94692745e+01 6.24916191e+01
      8.73743057e+00 2.84916192e-01 2.21284924e+01 3.22905016e+00
      7.69273758e+00 0. 4.08379889e+00 1.61452508e+00 0. 3.22905016e+00
      2.84916192e-01 9.49720666e-02 1.61452508e+00 0. 5.50837975e+01
      1.89944133e-01 7.59776533e-01 0. 2.84916192e-01 2.46927381e+00
      6.64804459e-01 9.49720666e-02 1.89944133e-01 0. 1.23463690e+00 0.
      9.49720666e-02 3.79888266e-01 0. 9.49720666e-02 1.41508379e+01
      1.89944133e-01 6.64804459e-01 6.64804459e-01 3.41899443e+00
      9.49720666e-02 0. 7.31284904e+00 9.97206688e+00 8.40502777e+01
      6.64804459e-01 0. 0. 1.02569828e+01 1.76648045e+01 0. 0.
      1.34860334e+01 9.49720666e-02 1.89944133e-01 0. 1.89944136e+00 0.
      0. 1.23463690e+00 0. 0. 1.89944133e-01 0. 0. 1.51955307e+00 0.
      2.84916192e-01 0. 0. 4.74860340e-01 0. 8.54748607e-01 0. 0.
      4.74860340e-01 0. 0. 9.49720681e-01 3.70391059e+00 1.42458105e+00
      0. 1.89944133e-01 1.61452508e+00 3.60893846e+00 9.49720666e-02 0.
      0. 0. 1.86145248e+01 0. 0. 0. 1.17765360e+01 8.26256943e+00
      8.54748607e-01 0. 6.64804459e-01 1.89944133e-01 1.04469275e+00 0.
      1.32960892e+00 1.04469275e+00 0. 0. 9.49720666e-02 0. 0. 0.
      3.13407826e+00 9.49720666e-02 1.89944133e-01 0. 9.49720666e-02
      1.32960892e+00 9.49720666e-02 9.49720666e-02 0. 0. 1.89944133e-01
      0. 0. 1.89944133e-01 0. 0. 1.42458105e+00 0. 0. 0. 1.32960892e+00
      0. 0. 5.69832385e-01 0. 1.77597771e+01 1.89944133e-01 0. 0.
      2.18435764e+00 1.68100567e+01 0. 0. 4.46368694e+00 9.49720666e-02
      0. 0. 6.55307245e+00 0. 0. 0. 0. 0. 0. 0. 0. 0. 0. 0. 0. 0. 0. 0.
      0. 0. 0. 0. 0. 0. 0. 0. 0. 0. 0. 0. 0. 0. 0. 0. 0. 0. 0. 0. 0. 0.
      0. 0. 0. 0. 0. 0. 0. 0. 0. 0. 0. 0. 0. 0. 0. 0. 0. 0. 0. 0. 0. 0.
      0. 0. 0. 0. 0. 0. 0. 0. 0. 0. 0. 0. 0. 0. 0. 0. 0. 0. 0.</_>
    <_>
      8.32972946e+01 2.79896826e-01 2.23917454e-01 3.91855538e-01
      2.51907140e-01 2.56105590e+00 1.03561819e+00 8.39690417e-02
      1.63039899e+00 8.39690447e-01 6.01778150e-01 3.02288556e+00
      5.10811687e-01 3.25380039e+00 5.96180201e+00 9.30656910e-01
      7.58520365e+00 1.36449695e+00 6.71752334e-01 1.91029572e+00
      3.56868434e+00 8.63481712e+00 5.37401867e+00 1.20355630e+00
      1.77734482e+00 2.60304046e+00 6.31867075e+00 3.14883918e-01
      1.65838861e+00 7.13736892e-01 4.58121109e+01 1.88930348e-01
      6.01778150e-01 3.21881354e-01 7.28431463e+00 1.08809891e+01
      2.86894250e+00 1.17556667e+00 7.64118290e+00 1.38548923e+00
      4.98216343e+00 3.07886511e-01 1.98726737e+00 1.22454858e+00
      6.29767850e-02 1.02162337e+00 3.00889075e-01 1.32950991e-01
      1.98726737e+00 5.59793636e-02 1.23504467e+01 3.56868446e-01
      5.31803966e-01 5.31803966e-01 1.92429066e+00 1.30152023e+00
      2.93191910e+00 2.44209981e+00 4.75824594e-01 2.79896818e-02
      3.05087543e+00 0. 4.75824594e-01 6.92744613e-01 3.49871032e-02
      2.23917454e-01 6.26968861e+00 5.31803966e-01 5.37401867e+00
      2.14820814e+00 2.66601729e+00 1.74935505e-01 1.46945834e-01
      2.78357391e+01 4.68477287e+01 1.43307171e+01 1.11958730e+00
      1.53243506e+00 1.11958727e-01 3.90596008e+01 4.09209137e+01
      1.20355630e+00 7.69716278e-02 2.19019270e+00 3.42873603e-01
      2.51907140e-01 1.81932926e-01 5.80785894e+00 1.46945834e-01
      4.19845223e-01 3.20481849e+00 6.50760114e-01 1.93828547e+00
      1.51844025e+01 1.11958727e-01 2.00916931e+02 2.95990896e+00
      7.69716278e-02 1.33412811e+02 8.39690417e-02 1.88930348e-01 255.
      2.65901983e-01 1.92778931e+01 1.80211563e+02 3.84858131e-01
      1.68987713e+01 5.31803966e-01 2.30914876e-01 6.12274313e+00
      1.44146860e+00 6.75251055e+00 2.16920033e-01 3.91855538e-01
      8.88672411e-01 1.75845184e+01 6.08775556e-01 2.79896818e-02
      8.39690417e-02 8.39690417e-02 1.85011787e+01 0. 8.32693040e-01
      8.39690417e-02 8.21917038e+01 9.12743530e+01 1.92429066e+00
      1.18956149e-01 8.53685319e-01 2.51907140e-01 4.90519190e+00
      1.39948413e-01 5.38801372e-01 4.42936707e+00 4.61829752e-01
      4.61829752e-01 3.77860695e-01 2.72899389e-01 1.32950985e+00
      5.52796245e-01 1.21055377e+00 4.33840066e-01 8.25695634e-01
      2.30914876e-01 5.73788464e-01 3.70863289e-01 1.25953567e+00
      1.21755111e+00 2.79896826e-01 2.30914876e-01 1.11958730e+00
      3.56868446e-01 5.66791058e-01 8.95669818e-01 4.05850381e-01
      3.91855538e-01 4.40837502e-01 3.77860695e-01 1.60240924e+00
      8.88672411e-01 5.10811687e-01 5.52796245e-01 1.25953570e-01
      1.72836280e+00 5.17809093e-01 6.52159595e+00 3.63865852e-01
      4.33840066e-01 1.11958727e-01 1.21755111e+00 5.63992071e+00
      3.56868446e-01 5.31803966e-01 2.11322093e+00 4.96816844e-01
      2.37912297e-01 5.59793636e-02 2.11322093e+00 5.59793636e-02
      1.67938083e-01 0. 0. 0. 0. 0. 0. 0. 0. 0. 0. 0. 0. 0. 0. 0. 0. 0.
      0. 0. 0. 0. 0. 0. 0. 0. 0. 0. 0. 0. 0. 0. 0. 0. 0. 0. 0. 0. 0. 0.
      0. 0. 0. 0. 0. 0. 0. 0. 0. 0. 0. 0. 0. 0. 0. 0. 0. 0. 0. 0. 0. 0.
      0. 0. 0. 0. 0. 0. 0. 0. 0. 0. 0. 0. 0. 0. 0.</_>
    <_>
      1.08230658e+01 7.23730862e-01 1.11849320e+00 9.37560439e-01
      2.31922841e+00 2.82912970e+00 2.36857367e+00 1.38166797e+00
      4.27659130e+00 3.35547948e+00 4.32593679e+00 5.13190985e+00
      3.02651095e+00 4.21079779e+00 3.25678897e+00 1.90801775e+00
      2.84557819e+00 1.33232272e+00 7.56627738e-01 1.03625107e+00
      1.79287875e+00 1.85867250e+00 1.71063662e+00 6.08591855e-01
      9.86905754e-01 7.23730862e-01 1.41456485e+00 1.31587431e-01
      3.94762278e-01 1.97381139e-01 7.36889601e+00 0. 3.94762278e-01
      6.57937154e-02 1.29942584e+00 4.02986526e+00 1.59549761e+00
      4.93452877e-01 2.25343466e+00 3.45416993e-01 9.21112001e-01
      8.22421461e-02 1.31587434e+00 7.89524555e-01 6.57937154e-02
      6.41488731e-01 2.13829577e-01 1.31587431e-01 4.77004439e-01 0.
      4.73714733e+00 6.57937154e-02 2.30278000e-01 3.28968585e-01
      3.28968585e-01 4.11210716e-01 4.27659154e-01 3.94762278e-01
      2.13829577e-01 0. 9.86905754e-01 6.57937154e-02 1.80932716e-01
      4.77004439e-01 0. 1.64484289e-02 2.43436742e+00 6.57937154e-02
      1.97381151e+00 7.40179300e-01 8.05972993e-01 6.57937154e-02
      8.22421461e-02 1.19909048e+01 1.08724117e+01 3.55286074e+00
      5.59246600e-01 9.86905754e-01 6.57937154e-02 6.61226845e+00
      1.40963039e+01 5.26349723e-01 0. 1.00335419e+00 1.31587431e-01
      3.45416993e-01 3.61865431e-01 3.84893227e+00 5.59246600e-01
      2.43436742e+00 1.31587429e+01 2.03960514e+00 2.92782044e+00
      1.16619358e+01 2.96071708e-01 8.78839569e+01 9.27691364e+00
      2.63174862e-01 1.35403473e+02 1.64484286e+00 2.35212541e+00
      1.24481712e+02 8.09262657e+00 1.79123383e+01 255. 8.05973053e+00
      2.88011990e+01 7.43469000e+00 1.26652896e+00 1.50996580e+01
      9.34270763e+00 1.93104553e+01 2.97716570e+00 1.89156938e+00
      1.43101335e+00 8.83280659e+00 1.31587434e+00 1.64484289e-02
      9.86905694e-02 0. 1.07737207e+01 0. 4.60556000e-01 0.
      2.87518539e+01 1.16125908e+01 1.03625107e+00 1.31587431e-01
      7.23730862e-01 0. 2.43436742e+00 0. 2.63174862e-01 8.55318308e-01
      0. 6.57937154e-02 0. 0. 3.94762278e-01 1.31587431e-01
      4.60556000e-01 1.97381139e-01 1.05269945e+00 0. 0. 1.31587431e-01
      7.23730862e-01 1.97381151e+00 0. 0. 7.23730862e-01 0.
      1.31587431e-01 5.92143416e-01 2.63174862e-01 5.26349723e-01
      9.86905754e-01 1.18428683e+00 6.57937154e-02 1.31587434e+00
      9.86905754e-01 3.94762278e-01 7.23730862e-01 9.86905754e-01
      6.57937169e-01 2.43436742e+00 2.63174862e-01 6.57937169e-01
      6.57937154e-02 1.44746172e+00 3.75024176e+00 2.63174862e-01
      4.60556000e-01 7.89524555e-01 1.18428683e+00 2.63174862e-01
      6.57937154e-02 2.50016117e+00 2.63174862e-01 3.78313869e-01 0. 0.
      0. 0. 0. 0. 0. 0. 0. 0. 0. 0. 0. 0. 0. 0. 0. 0. 0. 0. 0. 0. 0. 0.
      0. 0. 0. 0. 0. 0. 0. 0. 0. 0. 0. 0. 0. 0. 0. 0. 0. 0. 0. 0. 0. 0.
      0. 0. 0. 0. 0. 0. 0. 0. 0. 0. 0. 0. 0. 0. 0. 0. 0. 0. 0. 0. 0. 0.
      0. 0. 0. 0. 0. 0. 0. 0.</_>
    <_>
      1.03977270e+01 0. 0. 5.11363626e-01 0. 2.04545450e+00
      1.36363637e+00 0. 3.11079550e+00 0. 5.11363626e-01 3.92045450e+00
      1.70454547e-01 5.28409100e+00 8.52272701e+00 1.02272725e+00
      1.09090910e+01 3.92045450e+00 2.21590900e+00 3.57954550e+00
      4.77272749e+00 1.15909090e+01 1.05681820e+01 3.40909100e+00
      3.40909100e+00 7.45738649e+00 1.27840910e+01 6.81818187e-01
      1.02272725e+00 8.52272749e-01 1.05681820e+01 0. 3.40909094e-01 0.
      6.30681801e+00 15. 6.81818187e-01 1.36363637e+00 1.05681820e+01
      1.70454550e+00 4.60227299e+00 0. 2.21590900e+00 2.21590900e+00 0.
      1.19318187e+00 1.70454547e-01 0. 1.19318187e+00 1.70454547e-01
      7.50000000e+00 6.81818187e-01 5.11363626e-01 1.70454547e-01
      1.02272725e+00 8.52272749e-01 1.70454547e-01 3.40909094e-01
      8.52272749e-01 0. 1.02272725e+00 0. 8.52272749e-01 0. 0. 0.
      3.92045450e+00 0. 5.11363626e-01 1.70454547e-01 1.53409088e+00
      1.70454547e-01 0. 2.55681825e+00 4.43181801e+00 5.96590900e+00
      3.40909094e-01 0. 0. 2.89772725e+00 4.09090900e+00 0. 0.
      1.87500000e+00 0. 5.11363626e-01 0. 1.36363637e+00 5.11363626e-01
      3.40909094e-01 3.06818175e+00 0. 8.52272749e-01 1.10795460e+01 0.
      9.37500000e+01 6.30681801e+00 3.40909094e-01 9.01704559e+01
      6.64772749e+00 5.88068199e+01 1.58181824e+02 9.64772720e+01
      8.40340881e+01 1.16420456e+02 9.61363678e+01 9.47727280e+01
      1.23750000e+02 7.50000000e+00 2.48863632e+02 1.31761368e+02 255.
      2.76136360e+01 1.32954550e+01 3.98863640e+01 3.95454559e+01
      2.79545460e+01 1.53409088e+00 5.96590900e+00 1.02272725e+00
      2.18181820e+01 0. 3.23863640e+01 2.38636374e+00 7.70454559e+01
      9.51136398e+01 4.77272749e+00 1.07386360e+01 8.52272701e+00
      3.40909094e-01 6.81818199e+00 3.40909094e-01 3.57954550e+00
      4.94318199e+00 2.21590900e+00 6.81818187e-01 6.81818187e-01 0.
      4.26136351e+00 5.11363626e-01 1.87500000e+00 1.19318187e+00
      2.38636374e+00 1.70454547e-01 8.52272749e-01 5.11363626e-01
      3.11079550e+00 3.75000000e+00 5.11363626e-01 3.40909094e-01
      2.94034100e+00 1.49147725e+00 1.27840912e+00 4.94318199e+00
      1.19318187e+00 1.49147725e+00 2.72727275e+00 2.68465900e+00
      1.06534088e+00 2.25852275e+00 2.08806825e+00 1.40625000e+00
      1.15056825e+00 3.62215900e+00 1.61931825e+00 5.62500000e+00
      1.53409088e+00 1.15056825e+00 2.98295468e-01 1.53409088e+00
      9.92897701e+00 1.06534088e+00 6.81818187e-01 2.98295450e+00
      1.49147725e+00 8.09659123e-01 2.13068187e-01 4.26136351e+00
      1.70454547e-01 0. 0. 0. 0. 0. 0. 0. 0. 0. 0. 0. 0. 0. 0. 0. 0. 0.
      0. 0. 0. 0. 0. 0. 0. 0. 0. 0. 0. 0. 0. 0. 0. 0. 0. 0. 0. 0. 0. 0.
      0. 0. 0. 0. 0. 0. 0. 0. 0. 0. 0. 0. 0. 0. 0. 0. 0. 0. 0. 0. 0. 0.
      0. 0. 0. 0. 0. 0. 0. 0. 0. 0. 0. 0. 0. 0. 0. 0.</_>
    <_>
      7.44867783e+01 0. 0. 0. 0. 7.25049749e-02 2.90019900e-01 0.
      1.20841630e-01 2.41683256e-02 1.45009950e-01 1.69178277e-01
      2.41683256e-02 1.20841630e-01 6.76713109e-01 7.25049749e-02
      2.90019900e-01 1.69178277e-01 2.41683256e-02 1.69178277e-01
      1.47426784e+00 8.70059729e-01 4.35029864e-01 1.20841630e-01
      4.35029864e-01 2.90019900e-01 4.59198177e-01 9.66733024e-02 0. 0.
      3.42223473e+01 0. 1.69178277e-01 2.41683256e-02 1.88512936e+01
      1.97213535e+01 1.18424797e+00 2.90019900e-01 2.05430770e+00
      2.90019900e-01 1.57094121e+00 0. 6.76713109e-01 6.76713109e-01 0.
      1.93346605e-01 9.66733024e-02 0. 8.45891416e-01 0. 5.99374485e+00
      1.25675297e+00 1.01506972e+00 6.28376484e-01 1.27608757e+01
      9.66733038e-01 7.83053732e+00 1.61444416e+01 6.76713109e-01 0.
      5.89707136e+00 0. 3.86693209e-01 1.08757460e+00 0. 6.76713109e-01
      6.67045784e+00 1.93346605e-01 8.33807278e+00 3.86693209e-01
      2.99687243e+00 2.17514932e-01 4.83366519e-01 1.63402054e+02
      1.31282349e+02 6.69462633e+00 3.14188242e+00 1.93346608e+00
      2.17514932e-01 1.80271545e+02 255. 2.03013945e+00 0.
      1.83679271e+00 1.93346605e-01 1.93346605e-01 0. 1.25433607e+01
      3.14188242e-01 5.80039799e-01 2.32015920e+00 2.90019900e-01
      9.66733038e-01 4.25362539e+00 0. 6.00341225e+01 3.19021893e+00 0.
      7.38584061e+01 1.93346605e-01 0. 7.62752380e+01 1.93346605e-01
      9.47398376e+00 7.27949982e+01 6.76713109e-01 9.37731075e+00
      1.35342622e+00 2.90019900e-01 5.70372486e+00 7.73386419e-01
      5.99374485e+00 7.73386419e-01 3.86693209e-01 7.73386419e-01
      9.08729076e+00 4.83366519e-01 0. 1.93346605e-01 9.66733024e-02
      1.26642027e+01 0. 1.54677284e+00 0. 3.19988632e+01 4.56297989e+01
      1.16007960e+00 2.90019900e-01 4.83366519e-01 0. 2.70685244e+00 0.
      2.90019900e-01 5.80039799e-01 0. 0. 9.66733024e-02 0.
      2.90019900e-01 0. 2.90019900e-01 1.93346605e-01 1.93346605e-01 0.
      0. 0. 4.83366519e-01 7.73386419e-01 0. 0. 3.86693209e-01 0. 0.
      5.80039799e-01 0. 9.66733024e-02 0. 0. 0. 0. 9.66733024e-02 0. 0.
      0. 0. 1.54677284e+00 0. 0. 2.41683256e-02 7.25049749e-02
      1.93346605e-01 0. 0. 0. 0. 0. 0. 2.65851587e-01 0. 0. 0. 0. 0. 0.
      0. 0. 0. 0. 0. 0. 0. 0. 0. 0. 0. 0. 0. 0. 0. 0. 0. 0. 0. 0. 0. 0.
      0. 0. 0. 0. 0. 0. 0. 0. 0. 0. 0. 0. 0. 0. 0. 0. 0. 0. 0. 0. 0. 0.
      0. 0. 0. 0. 0. 0. 0. 0. 0. 0. 0. 0. 0. 0. 0. 0. 0. 0. 0. 0. 0. 0.
      0. 0. 0. 0. 0. 0.</_>
    <_>
      2.12982826e+01 5.56211948e-01 6.02562964e-01 3.70807976e-01
      1.11242390e+00 1.98150516e+00 2.00468063e+00 7.06852674e-01
      3.23298192e+00 1.76133788e+00 2.73470879e+00 3.47632480e+00
      1.06607294e+00 2.88534951e+00 4.70462608e+00 1.65704811e+00
      6.14150715e+00 6.60501719e-01 6.95264935e-01 2.12055802e+00
      2.24802327e+00 7.81014299e+00 5.34195232e+00 1.56434619e+00
      1.36735439e+00 2.69994569e+00 5.21448708e+00 8.11142474e-02
      1.57593393e+00 1.05448520e+00 1.49134331e+01 6.95264935e-02
      2.02785611e+00 6.02562964e-01 9.79164791e+00 1.57709265e+01
      1.35576665e+00 2.81582308e+00 1.15993366e+01 2.06261945e+00
      6.70930672e+00 7.18440473e-01 2.05103159e+00 1.68022358e+00
      3.70807976e-01 3.09392905e+00 1.07766068e+00 2.54930496e-01
      3.45314932e+00 1.39052987e-01 1.18542671e+01 1.11242390e+00
      1.80768883e+00 2.14373350e+00 8.57493401e+00 1.01972198e+00
      9.10797119e+00 7.32345772e+00 1.96991742e+00 0. 7.83331871e+00 0.
      1.15877497e+00 1.90039086e+00 1.39052987e-01 1.08924842e+00
      1.53305922e+01 9.61783171e-01 8.48223209e+00 3.27933311e+00
      4.85526705e+00 7.18440473e-01 3.36044729e-01 1.53387039e+02
      8.97471161e+01 1.69876404e+01 1.43688087e+01 6.22262144e+00
      1.50640741e-01 1.32957840e+02 2.55000015e+02 1.01740437e+01
      1.04289740e-01 3.04757810e+00 1.91197860e+00 1.48323190e+00
      2.31754985e-02 2.42299843e+01 4.63509969e-02 1.85403988e-01
      2.41025186e+00 4.63509969e-02 1.73816234e-01 7.10329008e+00
      2.31754985e-02 2.56089249e+01 8.76033878e+00 1.15877492e-02
      5.26199684e+01 1.27465248e-01 9.27019939e-02 2.70110435e+01
      1.39052987e-01 5.74752378e+00 6.03026466e+01 3.01281482e-01
      1.36387806e+01 3.01281482e-01 3.93983483e-01 9.27019954e-01
      1.03130972e+00 1.52958286e+00 2.66518235e-01 1.39052987e-01
      6.95264935e-01 8.79510212e+00 3.82395715e-01 5.79387471e-02
      1.27465248e-01 4.63509969e-02 1.08461332e+01 9.27019939e-02
      2.43342727e-01 1.39052987e-01 7.72902870e+00 1.17499781e+01
      1.98150516e+00 4.63509969e-02 2.31754988e-01 9.27019939e-02
      5.56211948e-01 1.85403988e-01 4.63509969e-02 5.56211948e-01
      9.27019939e-02 9.27019939e-02 1.85403988e-01 4.63509969e-02
      1.50640741e-01 0. 4.63509977e-01 1.73816234e-01 1.73816234e-01
      4.63509969e-02 1.85403988e-01 0. 1.39052987e-01 9.27019939e-02 0.
      4.63509969e-02 2.43342727e-01 0. 0. 1.15877492e-02 0.
      4.63509969e-02 2.78105974e-01 0. 0. 0. 9.27019939e-02 0. 0.
      1.39052987e-01 4.63509969e-02 1.47164416e+00 0. 0. 0.
      2.31754988e-01 1.62228489e+00 0. 0. 2.78105974e-01 9.27019939e-02
      9.27019939e-02 4.63509969e-02 1.11242390e+00 0. 1.85403988e-01 0.
      0. 0. 0. 0. 0. 0. 0. 0. 0. 0. 0. 0. 0. 0. 0. 0. 0. 0. 0. 0. 0. 0.
      0. 0. 0. 0. 0. 0. 0. 0. 0. 0. 0. 0. 0. 0. 0. 0. 0. 0. 0. 0. 0. 0.
      0. 0. 0. 0. 0. 0. 0. 0. 0. 0. 0. 0. 0. 0. 0. 0. 0. 0. 0. 0. 0. 0.
      0. 0. 0. 0. 0. 0. 0. 0. 0.</_>
    <_>
      1.39814255e+02 0. 0. 0. 0. 0. 0. 0. 0. 0. 0. 0. 0. 7.57800877e-01
      3.78900439e-01 0. 0. 0. 0. 3.78900439e-01 3.78900433e+00 0. 0. 0.
      3.78900439e-01 7.57800877e-01 1.13670135e+00 0. 0. 0.
      3.56166420e+01 0. 2.65230298e+00 0. 2.27340269e+00 1.13670135e+00
      2.65230298e+00 7.57800877e-01 2.65230298e+00 3.78900439e-01
      1.89450216e+00 0. 3.78900439e-01 1.13670135e+00 7.57800877e-01 0.
      2.27340269e+00 0. 7.57800877e-01 0. 3.03120351e+00 3.78900439e-01
      7.57800877e-01 0. 7.57800877e-01 0. 0. 3.41010404e+00
      3.78900439e-01 0. 1.51560175e+00 0. 1.13670135e+00 3.78900439e-01
      0. 3.78900439e-01 3.78900433e+00 0. 1.59138184e+01 0.
      1.51560175e+00 0. 0. 1.15185730e+02 255. 4.92570591e+00
      1.51560175e+00 0. 0. 2.37191681e+02 1.22384842e+02 0. 0.
      2.65230298e+00 3.78900439e-01 4.54680538e+00 0. 6.06240702e+00 0.
      0. 2.65230298e+00 0. 1.13670135e+00 6.82020807e+00 0.
      6.21396713e+01 3.03120351e+00 0. 2.95542336e+01 0. 3.78900439e-01
      5.34249611e+01 0. 1.36404161e+01 4.13001480e+01 0. 4.54680538e+00
      0. 0. 1.51560175e+00 7.57800877e-01 2.27340269e+00 3.78900439e-01
      0. 3.78900439e-01 3.41010404e+00 1.13670135e+00 0. 3.78900439e-01
      0. 7.95690918e+00 0. 7.57800877e-01 0. 3.63744431e+01
      1.36404160e+02 1.51560175e+00 0. 2.65230298e+00 0. 1.51560175e+00
      0. 3.78900439e-01 1.89450216e+00 0. 3.78900439e-01 0. 0. 0. 0.
      7.57800877e-01 7.57800877e-01 3.78900439e-01 0. 0. 0. 0. 0. 0. 0.
      0. 0. 0. 0. 0. 0. 0. 0. 0. 0. 0. 0. 0. 7.57800877e-01 0.
      1.89450216e+00 0. 0. 0. 0. 0. 0. 0. 3.78900439e-01 0. 0. 0.
      3.78900439e-01 0. 0. 0. 0. 0. 0. 0. 0. 0. 0. 0. 0. 0. 0. 0. 0. 0.
      0. 0. 0. 0. 0. 0. 0. 0. 0. 0. 0. 0. 0. 0. 0. 0. 0. 0. 0. 0. 0. 0.
      0. 0. 0. 0. 0. 0. 0. 0. 0. 0. 0. 0. 0. 0. 0. 0. 0. 0. 0. 0. 0. 0.
      0. 0. 0. 0. 0. 0. 0. 0. 0. 0. 0. 0. 0. 0. 0. 0. 0.</_>
    <_>
      1.29158920e+02 0. 0. 0. 0. 0. 0. 0. 0. 0. 0. 4.73977685e-01 0.
      2.36988842e-01 0. 0. 0. 0. 0. 0. 4.97676563e+00 0. 0. 0.
      1.65892196e+00 4.73977685e-01 0. 0. 0. 0. 4.81087341e+01 0. 0. 0.
      0. 0. 3.08085489e+00 0. 2.36988842e-01 0. 0. 0. 7.10966527e-01
      2.36988842e-01 0. 0. 0. 0. 0. 0. 3.08085489e+00 4.73977685e-01 0.
      0. 0. 1.65892196e+00 0. 2.36988842e-01 0. 0. 3.08085489e+00 0. 0.
      4.73977685e-01 0. 2.36988842e-01 1.01905203e+01 0. 2.46468391e+01
      1.18494415e+00 9.47955322e+00 1.42193305e+00 0. 1.44089218e+02
      2.22058548e+02 9.71654224e+00 3.79182148e+00 0. 0. 255.
      1.97174713e+02 0. 0. 5.21375465e+00 2.36988831e+00 1.89591074e+00
      0. 2.18029728e+01 0. 1.18494415e+00 4.50278807e+00 1.42193305e+00
      1.89591074e+00 8.29460907e+00 0. 9.92983246e+01 7.10966539e+00 0.
      1.24893120e+02 1.65892196e+00 0. 9.12407074e+01 0. 1.06644983e+01
      1.51198883e+02 4.73977685e-01 1.42193308e+01 0. 0. 9.47955370e-01
      9.47955370e-01 4.02881050e+00 0. 0. 0. 3.55483270e+00 0. 0. 0. 0.
      1.65892181e+01 0. 0. 0. 5.45074348e+01 6.77788086e+01
      1.42193305e+00 0. 7.10966527e-01 0. 2.13289952e+00 0.
      9.47955370e-01 2.60687733e+00 0. 0. 0. 0. 0. 0. 1.89591074e+00
      4.73977685e-01 0. 0. 0. 0. 2.36988842e-01 0. 0. 0. 0. 0. 0. 0. 0.
      0. 2.36988842e-01 0. 0. 0. 4.73977685e-01 0. 0. 0. 0.
      6.16170979e+00 0. 0. 0. 0. 2.36988842e-01 0. 0. 7.10966527e-01 0.
      0. 0. 4.73977685e-01 0. 0. 0. 0. 0. 0. 0. 0. 0. 0. 0. 0. 0. 0. 0.
      0. 0. 0. 0. 0. 0. 0. 0. 0. 0. 0. 0. 0. 0. 0. 0. 0. 0. 0. 0. 0. 0.
      0. 0. 0. 0. 0. 0. 0. 0. 0. 0. 0. 0. 0. 0. 0. 0. 0. 0. 0. 0. 0. 0.
      0. 0. 0. 0. 0. 0. 0. 0. 0. 0. 0. 0. 0. 0. 0. 0. 0. 0. 0.</_>
    <_>
      4.45819244e+01 0. 0. 0. 0. 0. 6.46114886e-01 0. 0. 0. 0.
      4.30743247e-01 0. 2.15371624e-01 0. 0. 0. 0. 0. 0. 0.
      2.15371624e-01 0. 0. 2.15371624e-01 0. 0. 0. 0. 0. 1.87373314e+01
      0. 0. 0. 0. 0. 1.07685816e+00 0. 0. 0. 0. 0. 4.30743247e-01 0. 0.
      0. 0. 0. 0. 0. 1.07685816e+00 0. 0. 0. 0. 6.46114886e-01 0. 0. 0.
      0. 2.15371624e-01 0. 0. 2.15371624e-01 0. 0. 7.96875000e+00 0.
      2.15371633e+00 0. 8.61486495e-01 0. 0. 5.29814186e+01
      5.49197655e+01 1.29222977e+00 4.30743247e-01 4.30743247e-01 0.
      5.14738197e+01 5.85810814e+01 0. 0. 0. 2.15371624e-01
      2.15371624e-01 0. 7.32263517e+00 0. 6.46114886e-01 1.93834460e+00
      0. 1.29222977e+00 2.58445954e+00 0. 6.15962830e+01 4.52280426e+00
      0. 9.17483139e+01 8.61486495e-01 1.07685816e+00 1.02947639e+02
      2.15371624e-01 5.16891909e+00 255. 1.29222977e+00 1.11993246e+01
      4.30743247e-01 2.15371624e-01 2.36908793e+00 6.24577713e+00
      4.73817587e+00 6.46114886e-01 2.36908793e+00 1.29222977e+00
      1.93834460e+00 8.61486495e-01 0. 0. 0. 4.30743265e+00 0. 0. 0.
      3.42440872e+01 4.99662170e+01 8.61486495e-01 0. 2.15371624e-01 0.
      8.61486495e-01 0. 2.15371624e-01 4.30743247e-01 0. 0.
      2.15371624e-01 0. 0. 0. 0. 2.15371624e-01 0. 0. 0. 2.15371624e-01
      0. 0. 0. 0. 6.46114886e-01 0. 0. 0. 0. 0. 2.15371624e-01 0. 0.
      2.15371624e-01 2.15371624e-01 0. 0. 2.15371624e-01 0.
      1.50760138e+00 2.15371624e-01 0. 0. 0. 2.15371624e-01 0. 0. 0.
      4.30743247e-01 2.15371624e-01 0. 2.15371624e-01 0. 0. 0. 0. 0. 0.
      0. 0. 0. 0. 0. 0. 0. 0. 0. 0. 0. 0. 0. 0. 0. 0. 0. 0. 0. 0. 0. 0.
      0. 0. 0. 0. 0. 0. 0. 0. 0. 0. 0. 0. 0. 0. 0. 0. 0. 0. 0. 0. 0. 0.
      0. 0. 0. 0. 0. 0. 0. 0. 0. 0. 0. 0. 0. 0. 0. 0. 0. 0. 0. 0. 0. 0.
      0. 0. 0. 0. 0. 0.</_>
    <_>
      2.97735062e+01 2.05902532e-01 8.23610127e-02 3.29444051e-01
      2.88263559e-01 1.78105688e+00 1.37954700e+00 3.08853805e-01
      1.61633492e+00 1.64722025e+00 1.92518866e+00 4.01509953e+00
      3.30473566e+00 1.06657515e+01 1.18599854e+01 8.48318386e+00
      1.58339043e+01 1.75737820e+01 1.10054903e+01 8.64790630e+00
      4.24159193e+00 3.91214800e+00 2.28551817e+00 1.09128344e+00
      5.76527119e-01 9.16266263e-01 1.44131768e+00 1.02951266e-02
      5.76527119e-01 2.05902532e-01 1.57721338e+01 4.11805063e-02
      4.52985585e-01 8.23610127e-02 6.01235390e+00 1.12834587e+01
      1.31777620e+00 5.35346568e-01 8.89498901e+00 1.15305424e+00
      4.61221695e+00 2.47083038e-01 2.55319142e+00 1.44131768e+00
      8.23610127e-02 1.64722025e+00 2.88263559e-01 0. 1.85312283e+00
      1.23541519e-01 1.40013723e+01 2.05902529e+00 2.88263559e-01
      8.64790618e-01 1.13658199e+01 9.05971169e-01 7.57721329e+00
      7.61839390e+00 4.52985585e-01 0. 5.98146868e+00 4.11805063e-02
      3.70624542e-01 8.64790618e-01 8.23610127e-02 3.29444051e-01
      9.96568298e+00 3.70624542e-01 7.37131071e+00 1.27659571e+00
      2.34728885e+00 1.23541519e-01 4.11805063e-02 1.27031570e+02
      7.54838715e+01 1.69251881e+01 1.15305424e+00 7.72134483e-01 0.
      9.96362381e+01 2.54999985e+02 1.00892246e+00 0. 2.35758400e+00
      2.47083038e-01 2.88263559e-01 1.02951266e-02 1.51956072e+01 0. 0.
      7.61839390e-01 0. 0. 6.17707610e-01 0. 3.33562112e+00
      1.44131768e+00 0. 5.68290997e+00 8.23610127e-02 0. 4.90048027e+00
      1.02951266e-02 1.89430332e+00 1.02951269e+01 4.11805063e-02
      3.37680149e+00 0. 2.88263559e-01 2.57378161e-01 1.12216878e+00
      3.60329419e-01 0. 2.05902532e-02 6.58888102e-01 2.18256688e+00 0.
      0. 0. 0. 7.74193525e+00 0. 0. 0. 5.46671200e+00 4.28277254e+00
      8.23610127e-01 0. 1.64722025e-01 4.11805063e-02 4.52985585e-01 0.
      1.64722025e-01 2.88263559e-01 0. 2.88263559e-01 0. 0.
      5.76527119e-01 0. 5.76527119e-01 5.35346568e-01 1.11187363e+00 0.
      1.64722025e-01 0. 1.15305424e+00 1.93548381e+00 0. 0.
      7.20658839e-01 0. 1.64722025e-01 9.78037000e-01 0. 8.23610127e-02
      7.82429636e-01 9.05971169e-01 4.11805063e-02 4.94166076e-01
      5.76527119e-01 0. 8.23610127e-02 6.17707610e-01 4.94166076e-01
      3.29444051e+00 4.94166076e-01 1.64722025e-01 0. 2.96499634e+00
      1.09128342e+01 6.58888102e-01 0. 1.11187363e+00 2.26492786e+00
      4.11805063e-01 2.05902532e-02 5.12697315e+00 4.11805063e-02 0. 0.
      0. 0. 0. 0. 0. 0. 0. 0. 0. 0. 0. 0. 0. 0. 0. 0. 0. 0. 0. 0. 0. 0.
      0. 0. 0. 0. 0. 0. 0. 0. 0. 0. 0. 0. 0. 0. 0. 0. 0. 0. 0. 0. 0. 0.
      0. 0. 0. 0. 0. 0. 0. 0. 0. 0. 0. 0. 0. 0. 0. 0. 0. 0. 0. 0. 0. 0.
      0. 0. 0. 0. 0. 0. 0. 0. 0.</_>
    <_>
      1.22703758e+02 0. 7.99373031e-01 7.99373031e-01 1.19905949e+00
      7.99373031e-01 1.19905949e+00 0. 1.19905949e+00 3.99686515e-01 0.
      1.19905949e+00 0. 4.39655161e+00 1.99843264e+00 0. 4.79623795e+00
      0. 3.99686515e-01 3.99686527e+00 1.55877743e+01 3.99686527e+00
      3.99686515e-01 1.59874606e+00 1.19905949e+00 2.79780555e+00
      3.99686515e-01 0. 0. 0. 1.13510971e+02 0. 7.99373031e-01
      3.99686515e-01 4.55642624e+01 6.71473312e+01 6.79467058e+00
      2.39811897e+00 5.11598740e+01 6.39498425e+00 1.91849518e+01 0.
      9.99216270e+00 2.39811897e+00 7.99373031e-01 8.79310322e+00
      1.99843264e+00 0. 1.27899685e+01 7.99373031e-01 7.43416901e+01
      2.39811897e+00 3.19749212e+00 2.79780555e+00 8.79310322e+00
      6.79467058e+00 1.11912222e+01 7.99373055e+00 5.19592476e+00 0.
      9.99216270e+00 0. 1.59874606e+00 1.99843264e+00 0. 1.59874606e+00
      4.11677094e+01 0. 2.35815048e+01 1.03918495e+01 2.67789974e+01
      3.19749212e+00 1.99843264e+00 1.07915359e+02 1.73463943e+02
      5.95532913e+01 5.59561110e+00 0. 0. 1.75062698e+02 255. 0. 0.
      2.63793106e+01 1.19905949e+00 2.39811897e+00 0. 3.91692772e+01 0.
      0. 1.23902817e+01 0. 7.99373031e-01 3.19749212e+00 0.
      2.63793106e+01 9.59247589e+00 0. 2.07836990e+01 0. 0.
      3.35736656e+01 0. 1.07915363e+01 2.79780560e+01 7.99373031e-01
      7.59404373e+00 5.59561110e+00 7.99373031e-01 7.59404373e+00
      8.79310322e+00 1.39890280e+01 3.59717870e+00 0. 1.99843264e+00
      9.19279003e+00 0. 0. 0. 0. 2.75783691e+01 0. 7.99373031e-01
      1.19905949e+00 2.51802502e+01 2.39811916e+01 1.19905949e+00 0.
      3.99686515e-01 3.99686515e-01 3.99686527e+00 0. 3.99686515e-01
      1.99843264e+00 0. 0. 0. 0. 3.99686515e-01 0. 4.79623795e+00
      1.19905949e+00 0. 0. 0. 3.99686515e-01 3.99686515e-01
      3.99686515e-01 0. 0. 3.99686515e-01 0. 3.99686515e-01 0. 0.
      3.99686515e-01 1.19905949e+00 0. 0. 0. 1.59874606e+00 0. 0. 0. 0.
      2.43808765e+01 0. 0. 0. 1.19905949e+00 7.19435740e+00
      3.99686515e-01 0. 3.59717870e+00 3.99686515e-01 0. 0.
      3.59717870e+00 0. 0. 0. 0. 0. 0. 0. 0. 0. 0. 0. 0. 0. 0. 0. 0. 0.
      0. 0. 0. 0. 0. 0. 0. 0. 0. 0. 0. 0. 0. 0. 0. 0. 0. 0. 0. 0. 0. 0.
      0. 0. 0. 0. 0. 0. 0. 0. 0. 0. 0. 0. 0. 0. 0. 0. 0. 0. 0. 0. 0. 0.
      0. 0. 0. 0. 0. 0. 0. 0. 0. 0. 0. 0. 0. 0. 0. 0. 0.</_>
    <_>
      2.05318085e+02 0. 5.06958246e-01 0. 0. 2.02783298e+00
      1.36878729e+01 0. 1.01391649e+00 0. 5.06958246e-01 4.05566597e+00
      0. 4.56262398e+00 1.26739559e+01 0. 2.17992039e+01 0.
      1.01391649e+00 4.05566597e+00 2.43339958e+01 1.11530819e+01
      4.05566597e+00 3.04174948e+00 5.06958246e+00 5.06958246e+00
      2.02783298e+00 0. 0. 0. 1.74647110e+02 0. 2.78827047e+00
      5.06958246e-01 5.42445335e+01 9.07455292e+01 9.75894642e+00
      2.53479123e+00 6.09617310e+01 1.60959244e+01 2.34468193e+01
      5.06958246e-01 1.96446323e+01 8.61828995e+00 0. 1.41948309e+01
      3.54870772e+00 0. 1.25472164e+01 0. 1.46510941e+02 6.08349895e+00
      7.09741545e+00 3.54870772e+00 7.09741545e+00 1.92644138e+01
      1.82504959e+01 9.63220692e+00 1.52087474e+00 0. 1.62226639e+01 0.
      3.54870772e+00 4.56262398e+00 0. 2.02783298e+00 8.51689835e+01
      3.04174948e+00 2.12922459e+01 1.26739559e+01 7.70576553e+01
      2.02783298e+00 0. 1.23190857e+02 2.40805161e+02 1.68817093e+02
      1.01391649e+00 5.06958246e-01 0. 1.65775345e+02 255. 0. 0.
      7.50298233e+01 5.06958246e-01 3.04174948e+00 0. 3.54870758e+01 0.
      0. 1.41948309e+01 0. 5.06958246e-01 9.63220692e+00 0.
      4.91749496e+01 1.01391649e+01 0. 2.07852879e+01 5.06958246e-01 0.
      5.93141136e+01 0. 1.26739559e+01 4.91749496e+01 3.54870772e+00
      1.67296219e+01 9.63220692e+00 1.52087474e+00 1.62226639e+01
      1.31809139e+01 1.97713718e+01 6.08349895e+00 1.01391649e+00
      2.02783298e+00 1.72365799e+01 1.01391649e+00 0. 0. 0.
      4.81610336e+01 0. 1.01391649e+00 0. 6.03280296e+01 5.62723656e+01
      3.04174948e+00 0. 1.01391649e+00 0. 9.12524796e+00 0.
      1.52087474e+00 7.09741545e+00 0. 1.01391649e+00 0. 0.
      5.06958246e+00 0. 1.11530819e+01 3.54870772e+00 1.01391649e+00 0.
      0. 2.02783298e+00 6.59045696e+00 2.02783298e+00 0. 0.
      2.02783298e+00 0. 0. 1.52087474e+00 0. 2.02783298e+00
      8.61828995e+00 0. 0. 0. 1.52087474e+00 0. 0. 1.01391649e+00
      1.01391649e+00 4.61332016e+01 0. 0. 0. 3.04174948e+00
      1.67296219e+01 0. 5.06958246e-01 1.62226639e+01 5.06958246e-01
      5.06958246e-01 0. 1.36878729e+01 0. 0. 0. 0. 0. 0. 0. 0. 0. 0. 0.
      0. 0. 0. 0. 0. 0. 0. 0. 0. 0. 0. 0. 0. 0. 0. 0. 0. 0. 0. 0. 0. 0.
      0. 0. 0. 0. 0. 0. 0. 0. 0. 0. 0. 0. 0. 0. 0. 0. 0. 0. 0. 0. 0. 0.
      0. 0. 0. 0. 0. 0. 0. 0. 0. 0. 0. 0. 0. 0. 0. 0. 0. 0. 0. 0. 0. 0.
      0.</_>
    <_>
      8.70528412e+00 1.38914108e-01 0. 1.11131287e+00 4.63047028e-02
      3.33393860e+00 2.38469219e+00 0. 3.21817684e+00 1.12288904e+00
      2.08371162e-01 2.48887777e+00 1.38914108e-01 2.45414925e+00
      5.59129286e+00 1.50490284e+00 8.80946922e+00 3.97062826e+00
      2.24577808e+00 8.04544258e+00 7.17722893e+00 1.24212360e+01
      7.39717627e+00 5.19770288e+00 3.78540945e+00 5.54498816e+00
      4.78096056e+00 3.33393860e+00 2.36153984e+00 5.09351730e-01
      9.81659698e+00 3.24132919e-01 3.09083891e+00 1.34283638e+00
      8.48533630e+00 1.58246326e+01 1.29653168e+00 1.72485018e+00
      1.06037769e+01 2.63936806e+00 9.63137817e+00 1.01870346e+00
      1.57435989e+00 4.16742325e+00 2.17632103e+00 3.88959503e+00
      4.72307968e+00 6.01961136e-01 2.11612492e+01 1.06500816e+00
      5.88069725e+00 6.06591606e+00 1.80588341e+01 3.70437622e+00
      9.00163422e+01 5.13982201e+00 3.83865967e+01 6.35300522e+01
      1.08353004e+01 8.79789352e-01 2.79680405e+01 3.70437622e-01
      2.05592880e+01 1.59056654e+01 7.87179947e-01 2.06055927e+00
      1.90775375e+01 1.55120754e+01 3.88959503e+00 1.33820591e+01
      5.92700195e+00 2.50045395e+00 2.40784454e+00 5.10393600e+01
      8.65434875e+01 3.41497183e+00 1.27893585e+02 1.00793762e+02 0.
      1.97304337e+02 255. 1.63270386e+02 4.63047028e-02 4.02850914e+00
      1.20392227e+01 1.99110222e+00 3.24132919e-01 7.22353363e+00
      6.94570541e-01 9.72398758e-01 6.36689663e+00 8.79789352e-01
      1.20392227e+00 3.51915741e+00 2.77828217e-01 8.38115120e+00
      9.72398758e-01 4.16742325e-01 4.12111855e+00 4.16742325e-01
      2.31523514e-01 4.76938438e+00 1.50490284e-01 1.57435989e+00
      6.57526779e+00 4.63047028e-02 2.13001633e+00 4.63047028e-02 0.
      4.05166149e-01 6.59842014e-01 4.63047028e-01 2.77828217e-01 0.
      9.26094055e-02 7.17722893e-01 4.63047028e-02 0. 0. 0.
      2.22262573e+00 0. 2.31523514e-01 4.63047028e-02 9.49246407e-01
      8.33484650e-01 6.94570541e-02 0. 3.12556744e-01 0. 1.85218811e-01
      0. 0. 0. 0. 1.15761757e-02 4.63047028e-02 0. 3.24132919e-01 0.
      5.55656433e-01 4.63047028e-02 6.59842014e-01 0. 1.96794987e-01 0.
      4.05166149e-01 5.78808784e-01 0. 0. 3.47285271e-01 0.
      4.63047028e-02 3.24132919e-01 0. 0. 2.31523514e-01 0. 0. 0.
      3.70437622e-01 0. 0. 5.09351730e-01 6.01961136e-01 1.05343199e+00
      1.85218811e-01 1.62066460e-01 2.31523514e-02 4.64204645e+00
      1.50837574e+01 1.38914108e-01 0. 1.92164516e+00 3.62334299e+00
      1.28495550e+00 6.94570541e-02 7.45505714e+00 9.26094055e-02
      4.63047028e-02 0. 0. 0. 0. 0. 0. 0. 0. 0. 0. 0. 0. 0. 0. 0. 0. 0.
      0. 0. 0. 0. 0. 0. 0. 0. 0. 0. 0. 0. 0. 0. 0. 0. 0. 0. 0. 0. 0. 0.
      0. 0. 0. 0. 0. 0. 0. 0. 0. 0. 0. 0. 0. 0. 0. 0. 0. 0. 0. 0. 0. 0.
      0. 0. 0. 0. 0. 0. 0. 0. 0. 0. 0. 0. 0. 0. 0.</_>
    <_>
      5.43516874e+00 0. 0. 4.52930719e-01 4.52930719e-01 4.52930719e-01
      9.05861437e-01 0. 1.35879219e+00 3.17051506e+00 6.79396057e+00
      1.72113667e+01 6.79396057e+00 1.17761984e+01 1.72113667e+01
      1.04174061e+01 9.96447563e+00 2.71758437e+00 1.81172287e+00
      9.05861437e-01 1.35879219e+00 3.62344575e+00 1.81172287e+00
      4.52930719e-01 4.52930719e-01 1.35879219e+00 4.98223782e+00 0.
      4.52930719e-01 0. 7.69982243e+00 0. 0. 0. 1.26820602e+01
      2.40053272e+01 0. 0. 1.63055058e+01 3.17051506e+00 1.26820602e+01
      4.52930719e-01 2.26465368e+00 4.07637644e+00 9.05861437e-01
      2.26465368e+00 3.17051506e+00 9.05861437e-01 1.26820602e+01
      4.52930719e-01 4.98223782e+00 1.13232679e+01 5.88809919e+00
      8.60568333e+00 7.24689178e+01 3.62344575e+00 6.61278839e+01
      5.66163406e+01 6.79396057e+00 0. 3.71403198e+01 0. 6.79396057e+00
      6.79396057e+00 0. 2.26465368e+00 2.30994663e+01 2.26465368e+00
      1.17761984e+01 7.69982243e+00 1.31349907e+01 4.52930719e-01
      1.81172287e+00 1.71207809e+02 1.26820602e+02 5.43516874e+00
      3.35168724e+01 1.76642971e+01 0. 1.49920074e+02 255.
      2.03818817e+01 0. 3.17051506e+00 7.24689150e+00 4.98223782e+00 0.
      2.71758423e+01 2.26465368e+00 1.81172287e+00 1.17761984e+01 0.
      4.07637644e+00 7.24689150e+00 0. 2.89875660e+01 2.71758437e+00 0.
      2.89875660e+01 1.35879219e+00 1.35879219e+00 2.35523968e+01
      9.05861437e-01 1.08703375e+01 2.67229118e+01 4.98223782e+00
      1.13232679e+01 2.26465368e+00 0. 4.52930737e+00 5.88809919e+00
      7.69982243e+00 2.71758437e+00 1.35879219e+00 2.71758437e+00
